-0.34359802007989915
1.1821978697652542
-0.11908295306442396
0.6377308424774571
1.3196001346121495
1.518676954032784
-1.0417744828196325
0.781588583358065
0.32923179037534667
0.9700743510390408
-0.6387102222016277
-0.7316489695957641
-0.4271131496303234
0.05042569774771348
-0.7663864947166347
-1.5042800133907126
-0.817529051346874
0.5332296085710106
-0.7141893695711775
1.454489684662899
1.2833160351950574
0.5387176325821544
0.9521182084738945
-1.1621705761948686
-0.27581506906324393
-1.0865135202446947
-0.04199304053166692
-0.3103032126973916
-0.13946849683391757
2.197645577619872
1.6754965373472832
-0.19536178461917283
-0.6093107161639967
0.9180224123206563
0.2026597053253393
1.075015702012997
0.9127756231005596
0.8515686447886529
1.797815225469418
-1.092642225143198
-1.1881584865385206
-1.6230245605476394
-0.7035572067067949
-0.6586370054470682
2.270564165406689
-0.9709379098570172
0.5361820027881055
-0.14487395927035576
0.09190351891523532
-0.19741876976188014
1.3016720156454171
-0.024260638874590693
0.2810721267669584
-0.22270040859829315
1.0379969052640492
-0.451220816549877
-1.4042263975043192
0.8232324324224862
-0.058555614568606626
0.9655396912615479
-0.061861537701871305
-0.5453412620320595
-0.6689522057741418
0.9669646579157519
0.8885777263397161
-0.4612298840414107
-1.4452244622108004
-0.7553347030845105
0.6152155673614627
-0.9427910107776235
-1.2729675713286621
-2.211318716309666
-0.41883772587953316
1.0417404878102234
0.7660737078392749
-1.8571742514938205
-0.8697708994217648
0.2264163357906002
1.984816970323472
0.73900939481595
-0.8924091154940347
1.4830512167524998
-0.5435471314314592
-0.07516932808799473
0.641317529408576
-0.24830521834145663
-0.7477640505872922
0.39726394821649447
0.9176602456649743
-0.7202937728597316
-2.6219328339240344
-2.007334128689955
-1.1235812621410786
-0.8815961571395475
-0.508472796198954
-0.2183585419095786
2.0259150468434384
1.4952410132744294
-0.40320921721132397
-1.4569347089368492
-1.5754243513075363
0.37249735038135834
-1.20247920353733
1.4115692804846363
0.4195412817480086
-1.825663658234057
-1.3117489117671874
0.6642645129672419
-1.196060221358577
0.7713912126339924
-0.4388636208648239
1.165810732432391
0.424592676894394
-0.3989558039952555
-0.7650194053595671
0.7438715753557752
-1.0630575026147424
-1.053174467431597
-0.4082603066923635
-0.7833396597230091
-0.34729306679127014
-1.081919029668864
1.5527551065052665
-0.6557124632205035
-0.25882022951872785
-0.03015822787128755
1.3976488712874628
0.7696757704612797
0.5833431749095016
1.9804655058994947
0.2349288071320429
-0.5796606955391154
-0.17615139469579655
1.0731614024698786
0.5190398819027507
-1.6395062922845347
-0.7503872307888166
0.8734341596701588
-0.08688586475168976
-0.2866376930857261
0.8502086555784408
-0.15113673047136975
-1.046591482838379
-0.5927576651859383
-1.4199909263013701
0.7062173209572922
0.6236023909016071
1.0651593076199635
1.3026448912334443
0.24271309694588825
-0.6839414176883798
-1.7349602275042078
0.6189912046002358
0.11036992477671084
-0.9396793104262278
-0.6320878598908823
0.48485796971552836
1.0051912768821805
0.4156531879424735
-0.8223164174551755
1.0214133970290982
0.2862186419274818
-0.5509807170033632
1.1146055502445604
0.6665669182597552
-2.008530564168899
1.0132552858372994
0.5267409117051529
0.433975598435571
2.025250165182539
-0.05717288506655195
0.1171549626372407
0.7782176397627198
1.3866750489285626
0.6957887292269
0.4492320732068249
1.4690313647696516
-1.1491434648813614
-2.673006140634824
0.6714370504404199
-1.2862895070160854
-0.6635306909822376
-0.6341368900549585
1.0469478217562076
1.3278363446639612
-0.42969885459501095
-0.3753814094356013
0.09419302651163267
-0.4877766349909348
0.15612832813088
-0.4003622487854778
0.35523218381153376
-0.9610017962390469
-0.5477485933627998
1.7745384400807827
-0.012377022915433692
-0.8506238236224306
-0.7049569467067794
-0.017726273596565124
-1.3744474369052782
1.6125232512977539
0.7010233713312303
0.6808745697018976
-1.0205815767785513
-0.6878244537725782
1.0126895416098876
1.2932704381897082
1.2699735825855525
-0.10830101571187116
0.42842230411248244
0.8183695485448541
1.3753481208882927
1.0809295425717043
0.6667746570447096
0.4438660345110913
0.3626039768220694
0.6701323087033205
-1.8886053923400186
1.2244771233087872
2.1042817614111144
0.5219836032160668
-0.14890751572933142
-0.35505233302910794
1.4541713133745644
-0.648157810510786
-1.4291328396679406
1.707909586857008
0.706152880703257
-2.0417478863287415
0.823797407851995
0.9356916820121742
0.028390197823812816
0.02583610305392202
0.40290430083548795
-2.6361466954826986
-1.4383667832215787
0.49234311971861777
0.7020178429514996
-0.7399606593748209
0.5702693280397158
0.27099632029338916
0.5917054395210138
-0.7898738007249212
1.0093305863258768
0.4201020752944415
1.259374029329634
1.1174634896974194
0.08013719698897866
0.1749064712619536
-0.5110779279928879
1.1193022510817978
-1.1207262110624292
-0.6100678350891832
-0.6073368026482758
-0.7478027423092898
1.7986487159593394
-0.601710491703223
-0.6074104243287731
-1.3167812851796534
0.8459088514056623
1.780932199978077
-1.3914494615202233
0.9887625089040104
0.05453731002364607
-1.6500302151745698
-0.8419183190441883
-0.04639055283680346
-2.5493631023399117
0.26322894011035175
0.3376381449259455
1.167897065432321
0.8254838394255226
0.13407026925230403
-0.5704186659682792
0.2715166987910206
1.331136358006443
0.27081716033264336
0.9412971525594805
2.1435746438896177
0.9237221197412483
0.6885126485644621
0.3953908014789763
0.44925323215514085
-0.04556361827227817
-1.9121303029689587
-0.37837335487039797
-0.7964558281359984
-0.9981459709793344
0.7465114519919119
0.8581351335958538
0.9463051296036072
-0.6195175755133046
-1.0511164209988786
-0.28623177784366116
-1.4166986776796762
-0.3302669035789797
1.4101863886069017
-0.594960296558597
-0.6316526493620409
1.9981404789567974
0.51434527645429
-0.06646701760705262
-0.8655453574046202
0.5994764454310039
-0.3270322634678772
-0.5788770221303827
-0.3407808738519378
-0.3358818179950212
-1.81544877124359
0.05792328497316924
1.5801896186507474
1.4313586213771523
-0.5552743461520074
1.1697405251944815
-1.8977055074883977
1.2670054114726472
-0.04863984557976909
1.3778257791047124
-0.15359076588794732
-1.512178678323484
0.3564963136164696
-0.14925645512143113
1.0462232028653176
-1.656292692786195
-1.6987610633438264
-1.026374987970614
-0.11288631216750929
-0.39992907854101767
-0.2798531643191085
0.2743646901162467
0.11155637585206107
-0.36957772400480565
0.25547780185963803
2.1717939407344797
0.7298829175060386
-0.45958956030348125
-0.6705387191344477
-2.2558743503050946
-1.2545609801759372
1.534963729072044
-0.45180570458749564
-0.09401256531981476
0.8213540757222156
0.032438219450075766
0.42911487002378274
1.281305558767163
-1.0473605096100165
0.43328694097103365
-0.2690799564477897
-0.13061278572395688
0.4355712015542057
-0.076315603534236
0.6412506063807717
-0.056154809741287
-1.0233305640116304
0.20497285069937846
1.0906104442640516
-0.4768746617115028
-0.5091851344989384
-0.2610642840605742
-0.4759336868330858
-0.06932496404656455
-0.2862525707657231
0.4069107623395805
-1.1200151660919022
0.7429675116592976
-0.25908557461994286
-0.8200355409443898
-0.09525188453877881
0.9892464944841396
-0.5420997812661306
-0.3718481485315651
0.1345473750660953
-2.2589490709748388
-0.7781869807764702
0.25565996565874055
0.20069820442630146
-0.8569059627973102
-0.09789544589591392
0.19235741769839107
-0.4090682969621333
0.8839037341632981
0.014287982855517783
0.7783026131877557
-0.37470427849329824
-0.943708120076989
0.4736674879535414
1.2682487407458
-1.3342215745911075
-0.7334845864017312
-1.8258440143333787
0.2718265921517547
-0.14788098451167675
-0.16851934101668975
0.2725054606729166
-0.5448774091973618
-1.6127338894095056
-0.2815159443805632
-0.7616325504769258
-0.1790579363405369
1.7654274562752512
-1.7706291088610593
2.32126287818632
0.6666410881645405
1.5852326972121173
0.5235822981479206
0.5235169258270485
-0.9489291162146871
-0.3752223761919512
-0.8718699881928254
2.0442301047957607
-1.8447825739581087
0.08552208239272066
-0.022584045357339207
-1.7516346511133145
1.709427105324872
0.31383164615186004
1.1767788856284915
0.43216668346807624
-2.574521635860393
0.9341389169893362
0.6213273705103234
-1.2237364576571002
1.0832227000839902
0.5449516704262487
-1.2240980209665704
0.7643827264323843
0.8435816068869683
1.1498836661052498
1.091420833331795
-1.2926494855821073
0.7110632545322463
-0.16080599712312182
0.191074683137528
0.10311356890991762
-1.4189882611171987
0.7737293923325013
-0.4849294821235515
-1.011006153104982
1.4137343099996018
-2.03404463145992
-0.47257239528872097
0.09872981380839763
0.9980653330235507
0.48004454377337047
0.5046767742870055
0.8755198844904202
-1.4605705013209502
0.8532897913360384
1.9047955542914357
1.5945011739169204
1.2809732132422378
-1.1109153803505059
0.044792673368861016
-0.4862779815833188
0.7457693331120645
2.566687422750326
2.436898569760693
-1.756427825006565
-0.10198620703544932
0.8536829700794357
-0.2919375420758993
0.5665388313917078
-1.7517400101353628
-0.6574915193061687
-0.9725803019400348
-0.7784830282341757
-2.9506432902426694
1.287544913209865
0.6053071968840125
-0.5292287412982883
-0.5528001735508556
-0.279868849227704
-0.606900737122144
-0.9973155959555448
-0.4384077672640555
1.6669884342943133
0.2993756897146443
-0.30286461992500485
0.3356168328867379
-1.5383487906645301
0.2160306400952784
-2.2285447632911533
0.7569821022371322
-0.93420036418375
1.242812346102005
-0.5184088381105
-0.30342804195011225
-1.4769906830390853
-1.0018807607505074
-1.4538968273178727
1.0955573386457846
-0.7340750403140556
0.7104109725215894
1.069323366606366
-0.3620396119670763
0.533725455722861
0.13314455501119896
1.5829873952620424
1.4011803837122416
-0.5223953243457207
0.8829337258960074
1.494418237077331
0.08085659366755804
0.924889480722147
1.4306842641736226
-0.6754915857094812
-0.3939834251589728
0.8435757842455562
1.653903019288825
-0.9868691999980161
-0.013352681998100644
-1.2003319543188493
-0.4119552394347377
-1.3278051677149525
0.6581619217473943
1.4071528578746193
-1.0120390207931445
2.3938963593320195
-1.4063013224413852
1.8008855589138082
0.5024703061723425
0.8712187970981123
0.1779739835236122
0.7361940429333732
-0.07610999449520112
-0.24204802891833307
-0.24860261649000512
1.7683686815422268
0.26693157996243694
-0.16010815519094515
-0.8249172505158463
0.35503647321988924
-0.0003912261317719515
0.7503996360486846
-0.5783007847389652
-0.901262739570024
0.10329863804751963
1.2527719095776662
0.8167119937296177
-1.705821117531389
-1.2092705844183624
0.781238488479678
-1.1999886635546109
0.1942555680475252
0.17556272676002602
-0.5953873630515948
0.06666338190489951
-1.4594003478924347
-0.04563690444726274
-1.6827730460871546
0.510552637680631
-0.9209863960189548
-0.20478791327271795
-1.485637462411562
-1.0802510069450824
0.7108305181543788
-1.1521978626726264
1.1823865267495721
1.3947378935121986
-0.853527822644443
0.41373087772931594
-1.314811876137424
-0.20798014142827193
-1.1607029271150244
0.21885868839125977
1.1166503112051487
-0.5419282863321476
-0.3959247712600065
2.3532494216971727
0.37859701841284366
-1.4873943559661107
-1.9386069263695003
-1.0935579491531275
-0.06690454232766951
0.03714380761424483
0.8210018229043784
-0.34041009511389614
-1.6313130172275898
0.08782314058939773
-0.013704243655457212
-0.5643288001855972
-1.154392669491239
-0.19833095042599846
0.9462143442424517
-1.2299524784351457
0.8540822226983622
-1.7956527039385888
0.7181789131384974
-0.8249816333100259
0.5365956989843974
1.108462113714774
-0.4850770013751002
0.8261755131852668
0.04884147074653013
0.599926067919111
0.34307346773497555
0.22235551252180058
-1.0606918930045133
-0.5278889301972676
0.5583738472891142
-0.2684206884133549
0.6310755716655095
1.2695964806453073
0.259541044900513
-1.2157530251100097
-1.315917128891622
1.3543999542382534
0.20753294260727537
-0.5797366870791724
0.22500758064258514
0.5349762543888648
0.5269401844846254
-1.2918441030920287
-0.8115777575109236
-1.0582564569058475
0.5740269305923151
-1.3159305712103335
1.3258113781289982
0.9040982539455753
1.5987783181067272
0.15697359847117792
0.9506824636187642
-0.9672075726162894
-1.5140465777903351
1.3765204066036023
1.90092644377662
-0.28761449773419856
-0.7075250143737892
-1.016853962146325
1.018687609072949
0.8288158121651736
-1.6840279541910148
1.234409099327358
-0.6498701775134985
1.0684513227714678
-0.014422179004517775
2.3421105257687707
-2.0505922730842623
-1.0032972505722413
-0.23374453202299897
0.966942710012762
0.07030857413674307
0.25152453038442324
0.7380515276062883
-0.9010235436148354
-0.13797917754895153
-0.5590769785497921
0.18654521764062457
0.21163010942707453
1.2520440051218966
-0.31055976990196
-1.0461938453678261
1.5451644532076252
-1.9110656535927433
-0.4908468920294444
0.22594462018693012
-2.369082152358667
0.7105665409053759
0.2375270076379191
-0.3554839892894611
2.278571861921161
-0.10408262469296364
0.6550814946738522
0.29341264942451
2.3324739901096074
1.040675130387684
0.6710073808198126
0.08251616278298612
-0.27355423762226494
-2.5389870633991363
-1.3436310887745
0.4321854085008808
0.01586984460649868
-0.9201803395257757
0.11161587840404388
-1.3080968436146032
-1.0624788633217062
-0.1338049833545468
-1.2617005918972732
0.4209025235508801
-0.9595668115313724
-0.7144673594559374
0.7338790972229425
-0.06290222050227887
-0.36669062731509716
1.194412892762304
0.12126350889172693
-0.3589221311609449
1.4466784257832128
1.7733285800550609
0.2777595724772814
-2.3159029028248224
0.6349144570888242
0.09020566019900197
-0.22558075312371445
-1.790933325827102
0.6584033136417587
-1.7994362673662108
-0.8715510241564047
-2.1184245301119846
1.537084877625638
-1.2722198717284656
0.16488041566160777
-0.2566312785368142
-1.9253160653519106
-1.180155712028989
-0.6328950965944041
1.8627985021658269
0.32400013004575884
0.4569282222064212
-1.7269752868161226
-1.3501503625101543
0.06475251481134502
-0.5269129119952565
0.12486460066028948
1.1274646165149873
0.42635607962987043
1.7067653679728618
1.131196323310115
0.968374451931524
-0.38026975350897446
-0.7022124156108981
0.3897221752871017
0.6928740605369712
-0.25777106682435685
0.19603737447860367
-1.3832283072379934
-1.153255601552175
0.2724550536335976
-0.8722671274628904
1.2019803286819486
2.227430417742502
0.6385405673022021
-0.0718547180113454
-1.895127860540525
-0.24399012480144702
-1.5028745742940668
-1.9969462733217718
1.536022629034206
0.9922434637325382
-2.676435520884503
1.6011483509651698
0.06862049494699558
-0.08149688772369891
-1.7904476155380469
1.1361415012884697
-1.5651019946064508
-0.0560726155001218
1.2573678657218805
0.04531759045802248
-1.599739411075231
0.1273813695554378
0.9500940113211215
0.28670086843658465
-0.8964519891096887
1.3652707681307787
0.6795694546961663
-1.1188176944616643
-0.09663146148490263
-0.00032990025390768356
-0.21877173089959762
0.0637825919842998
1.7070757817922455
1.2703085825760838
-1.7134662394258848
0.7606962591210218
-1.6965816659832238
-0.08481040571132245
0.1723949055090027
0.822463623578917
-0.15621126434471716
-0.5180121020646727
-0.9040232749043178
0.3459467118659002
1.552507338433806
0.19873756898728506
1.0972034324964732
-0.006626502111206276
-0.4902251468884313
-1.8694074760477208
0.5686402002172005
2.3877994030914618
0.04632236367600483
-0.2218230314851568
-1.0762133728416516
0.548601076887741
1.613214844105319
-0.5414197624431656
0.31097611098415867
1.7335547004105964
-0.7166605386968384
0.35139453481973076
-0.7654260874534272
0.20100549301972587
0.322745743876315
0.8628460341925763
-0.8424611323951804
-0.7582957490384415
-0.1918175030145365
0.08390671215328817
-0.4948856593647638
0.9081779393408697
1.0275925181896084
0.5184496148484967
1.6048739852466445
0.7947598466282326
-0.2132858861562242
-0.5472926830433023
-0.6928032038473193
-0.7596088161398613
-0.6659917581665011
-0.6676647627679725
1.5489687765560343
-0.27889717672885045
-0.2653670186446258
-0.2445214990934065
2.218661469228625
-0.4374356815772533
0.809539083910996
-0.08211230413776784
-1.2350142533879862
-0.7975343712005148
0.22845997060961065
-0.037809787626559586
-1.3628899102123744
0.48581445900527226
1.0474615205186304
-0.16487714057388955
1.4645336186277964
1.2330290733307165
0.8048417441344785
0.06413402632831915
1.2657505872585315
-1.94833941808891
0.44873508794652284
0.5274685735894711
0.5833341156772648
-1.3058234993703683
-0.7554145231524731
0.14942554037640735
-1.0056090559156057
-0.2832401153765224
1.548281472044889
0.4375275677183519
2.1193150949971016
0.2929407003791501
0.6863722951444152
0.02190119215537693
1.4104365710461555
1.6098540722823436
-0.8068342200003434
-0.9481244691548874
-0.7063466764930199
1.0300985378122753
-0.4264668128447407
0.2660823950142838
-0.033399785657345714
0.5838467392520784
1.463352812027349
2.3114400059445175
-1.4150959070229023
0.736152696901929
-1.3151412396897328
-0.7884481420655391
-1.0294350035635809
-1.660277327023742
1.0043159688170324
0.09212827058132739
-1.5067591599468748
-0.7441250157305881
0.8018127622450806
0.9554428891916842
-0.11331438536054421
0.1382698168263218
1.7293322667229931
-0.2620349892774783
0.29895609988166433
1.5504111074295033
-0.5325706000626934
-1.4996963159224617
-0.2687736216101888
-0.19891931853948436
0.2675301356267191
-0.5390651959750659
0.3536688733946391
-0.1327678923267061
0.45280150564915195
1.2442389313817928
-0.8275104025690527
0.8753896956475239
-0.25247223335866015
-0.22950450528022112
-1.8351551475136187
0.25659017003984796
-1.3180939910370586
0.42517092608369866
0.7676354186462653
0.2576477889790045
-0.9075340070239866
1.5568693524048831
0.514024581653621
0.16008194753668467
-0.2434089419665676
0.11022095306202459
-1.5023884212541472
0.9459938259832587
0.1711607157248971
0.027980795687948482
1.1067436704278775
0.7838815319114321
0.08057216560918048
0.26028182318002674
-1.0524453689232829
-0.4904414364013032
-1.2330559328086523
-1.0301771106262407
-0.8831953313319901
-0.809697053073995
-0.5013055141983953
-0.08138440750012348
1.1589802172179093
-1.3208839380709139
-1.215261364868215
0.13921706599816772
0.7887645051859815
-1.021307025999929
0.6662321826617146
-0.8074954155337772
-0.3772955571335103
-1.0416838514925717
0.7127229493291831
-0.7983821389197873
-0.7296869459071723
0.19347568412250593
-0.44111919914364955
-0.7385444356994327
-0.08277120233054985
-0.9351870990362815
0.8426209792743572
-0.11149202313152719
1.1728864651060769
-1.1336407098990282
1.305907333626642
0.9577550969666917
-0.9491761940464056
1.0913577602396887
-0.2789517080272682
0.6749807155874546
0.296637055921484
0.15543802259724196
0.11159973748607552
1.9799449942783987
-1.7043012877376487
-0.4397230545089501
-0.3198980480181276
1.5377055948821914
-1.7024006511649508
-0.5897944510261903
-1.2427233105440327
0.542774744479074
0.05049365116718849
-2.370853715217102
-0.9484363646624455
-0.29177767115928344
-0.13671311138050948
0.7471902422210773
-0.641465420135166
1.4559596038892406
0.6175176993316404
1.8606110990863964
-0.4708939671742626
0.5498471013359488
-1.8199100671825248
-0.1441256006199929
-1.4961141844531922
0.787458596175187
-1.4325671060986176
-1.0268733980228153
-0.4459206281042439
0.12327343867604913
0.8605758130983475
0.4913809889807545
0.8375959492050788
-2.3861237569920353
-0.8427803449027635
0.3231871163687278
-1.1273003643354849
0.7105478193078645
0.7200745282407717
-0.5570328655676186
0.19821512134582603
0.07536525387365386
1.0469399343157242
-0.29221880353646035
-0.9943857684877827
0.6997298001406272
0.33589750764280707
-0.5627458209095959
1.2228964512136589
0.23194972833245497
0.9079070832861079
0.27757247808119306
-0.29783272615480455
0.10331904146393041
-3.0801146294050934
0.3271741458592164
-0.9263641137240791
-1.4474517280830645
0.8560740936681746
-0.5808813220894883
-0.10005904338104138
-1.9651846637275063
1.29078930935878
-1.3822080012287659
-1.6562688571280255
0.3967738126399791
0.457309349102233
-0.5913904089614506
-1.1327892079898436
0.0038322266265832096
1.4323929333728616
0.5538685625271116
1.5910018329108457
1.4269648236847403
0.06354684378147393
1.714100457845631
0.7187925012006398
-1.7184211340749733
0.14390697569468192
-0.7056075452622963
-1.0417162530021054
1.652309980182304
-0.6969708396167139
0.16397873759768156
-0.40935759421989865
0.9828082539505504
0.5723482191591832
-0.8823124476858358
0.6740675063525285
0.14189617650306222
1.004433134359722
-0.4834071832257009
1.7013529725503498
-1.0417428670551037
-0.5855405881353257
-0.37452370814860464
0.3320413355033065
0.14157988275746963
-0.7421819589158145
0.09416977642541094
0.49487724984283693
-0.17532842200935558
1.0860262037223685
-1.2457689503203926
-0.4544854451621431
0.9331982806174716
-1.11883334003929
0.7130217470815632
-0.9540963704884963
0.07659339861728519
1.3050591689724103
-1.4329638552027841
-1.213279017312513
-0.7282488118673172
-0.8112363951883834
0.09455531646898127
-2.8747621948553013
-0.6048805215337721
-2.534682912358726
1.387326903801034
0.06464022136985473
0.1799226001908221
0.0017890609029477642
-1.4699004987924775
0.035745186108538995
1.208809873251477
-0.042241930408465814
0.459117856647058
-0.676645180815727
-0.9363138319990378
-0.6910933251020823
0.07494022388866689
-0.6922175194025838
1.31040921481722
-0.5472039904850287
-1.1390060349564717
0.7196761437959905
-0.38450257423324863
1.3373384293833714
-1.8483223596028604
1.9924137185755
-1.1787416156229442
-1.0139388944843999
-0.09305295823617574
1.629230618467178
-0.18699452746596798
1.3785851297077645
2.1770134507417875
1.4187659335155467
-0.5949227123847193
0.4856605737912212
0.3390678688253273
1.5270849312019033
-0.5353547865838397
-1.167321015915333
2.2271840071613656
1.0675639539775348
-1.1213366228708634
-1.8161817645053693
0.8735921432994994
0.724368520336437
-1.0641599145031375
-2.343211543412796
0.8445196667253378
-0.4647548428496157
-1.0350931325896955
-0.5270498286394215
-1.803113166619581
1.5648791751215896
-0.8720390664308773
1.6651238197231293
-2.0327812490361175
-0.5151072701618774
0.06389638539758022
-2.0135025956151775
0.6178406269094092
-1.1951120612505584
0.047265880012999015
0.07244348098321342
0.5460953455817469
-0.3720258653991282
0.21962947474652372
0.1348241278040594
-0.8896265638553277
1.4159530060555945
1.2156369739132842
0.47972745513665815
0.3041146634456899
0.3870113777842065
0.5657298882617797
-0.5612591956038411
-0.8780358811348282
-0.42867657279882804
-1.4856101518716904
0.6513342710955273
-0.638964099681301
0.6034222196925743
-1.3837599127603928
1.9610221677069257
-0.5071389284331387
-0.12391823151261933
-0.6436340863436548
1.564232907339526
-1.2247898653620575
-1.5792792052825582
-0.0723562884760443
-0.2896084920218483
-0.4134670499909443
1.6659080614130133
1.5121593605242563
1.7391228132501715
-0.38073950810422413
0.5450001459318186
0.29170671683102345
1.769962106154604
0.5390636216396414
-0.2677736451296115
-0.012966221104250521
0.050236388479116996
-1.459089848921257
-0.018150758395200445
-0.34148104859475475
-1.0281031012268198
-0.7590313667239033
-0.1610658380906424
-0.22855848968219714
-0.6824197100155709
-0.0024517576018080003
1.0932392148439907
0.7542954294010811
-0.034479716871337523
0.48316403888055787
0.9017233063230302
2.05036998001006
-0.7356970634358175
-0.4429642866167446
0.7758737587019445
0.4850438585749603
-1.451277560645345
0.471068795689508
2.3516571921144145
-2.528251439862297
0.741879663751845
-0.1855511012286013
-1.2841329552756442
-0.34052450071871504
-1.1852730043263762
-0.8680706131535072
1.1437236946388492
-0.6294738390271418
0.6255514627052287
-1.2251579525449152
2.5940517398967646
0.8785583252091322
-1.7406279854709863
0.33612503271007366
0.7359664983833011
1.0629544037357832
-1.8836064951358917
-1.751757643106414
1.0986286262029348
-1.68419766721809
-2.265125682665354
-0.062103954140436526
-0.7010165034097983
0.2243180329834598
0.6664442629110444
-0.29919207072507326
1.353670518011247
0.7038223981141856
0.026702259680902507
-1.6096389225896615
2.1515201338402448
0.5138573537866009
0.22266074686679058
0.7008642892709657
-0.7778457225260847
0.9585106403400516
-1.6438251823962267
-0.9259198039314807
-0.03079619325001582
0.40064789794378536
0.23600329999892672
0.15503767417588651
1.0202895820346771
0.3097699995089763
1.4024291481538136
-1.7422283283888689
0.6686160740026915
-1.809930475020404
-0.5489017710198519
1.763498049071461
0.4826628096661615
1.5722107472091815
-0.1524291235094799
-1.6678434517809602
0.1261646437034239
1.0566022495293843
-0.5915716749635256
-0.4167858977876552
0.02908849421231123
0.8760842076995969
0.3157488947916379
1.2908290678204903
-1.1379777058906204
1.418940593997713
-0.9781005069761126
0.7896297885138142
-0.5223894088756851
-1.732241893599862
0.28661470063025346
-0.44255915087906217
0.6707822787192873
1.7915490301062424
-1.0286497295861603
0.22982521369614425
1.3219439993851412
-1.5432426656437876
-0.6785505246462445
1.2373253159986062
0.3994095548796761
0.21593640342112974
1.532213461668664
0.7946593573700071
-1.8330406374513313
1.0755446119266618
-0.7789668937108852
-0.5988693397756263
-0.07019006199425065
-0.1978252274185
0.1995388928270151
-1.0623132494911545
-0.5447957841797875
-1.7839426482260639
-1.2320020504333342
-0.19613481933013427
1.0952212222064863
-2.4372975643427375
0.8582757467552966
-0.791816213457735
0.24374205746267014
0.8890341528675083
-1.818552333907292
-0.58225496606144
1.1186625161985924
-0.032491947067895106
-1.4478107549564339
1.5848363179039033
1.8241272296883118
1.1463571355571367
0.17390696986998017
0.04909260020800595
1.0227418828155692
-0.3465352903842714
-0.07010489280746421
2.3277946863195123
-0.4084232852633622
0.09841380628310223
-1.7177643242069072
0.24122125013973048
-0.11555981916024592
-0.754944821672019
0.9493675702684223
-1.84973818270398
0.45562298456541617
0.4778381628001491
1.4529575014087375
0.35487240219017385
0.7040498725445754
0.598978131895514
1.656234632690939
-0.40883188355233696
0.5825032500496868
-0.20725400328613092
0.6115329702132966
1.513998149563339
1.0031997651133264
-1.3844943960556837
-0.6977632254746394
-1.3409684588729438
-0.5902934637885193
2.54747503937731
1.1255667725542402
1.2435963317945329
-1.4343259704194522
-0.014426365626344795
-0.5409405901442315
-0.3606316318126175
0.15003305768718725
-1.521573077343526
-0.1327453523106251
-1.299732680901224
-0.30981301073350914
-1.3063098845465504
0.07201633419613272
-0.4744525788020933
0.31512868340616285
0.8112000369096296
1.0580038745960005
0.2339127481367375
-0.3345440419918643
1.2348882815741613
-1.8641545602168625
0.8889346214659842
0.4183836771671082
-0.34798444463968825
0.9194190367635606
0.4571046379185393
2.356546656868805
-1.8821086930556383
1.333409191109111
0.1665137613547239
-0.2471940373326728
0.9850866741671453
0.6747630212587444
1.4485947695463093
0.34322511794983274
0.4916246826464418
-0.7292621761782391
0.41665529107310406
0.5862482047867038
0.09999899207678686
1.7234977112214376
-0.6657702184188878
-0.38942219937569394
-0.2350977243862855
0.40977444026868515
0.49340866780120185
2.9655466718220267
-0.8264244171488779
0.5438529137408225
0.8543084105041685
0.013560486557301592
1.4327588226766006
-0.7225368094504327
-0.6939172176263552
1.405076616999052
0.6567047947784888
0.2708056133948798
-0.5266228123795829
-0.22113079403586344
1.0358987021750516
1.247923322775288
-0.28403416277283366
-0.3094726292337218
-0.3137793001192126
0.7923097740851079
0.7251492253093471
1.2754882265879715
0.6888930160079195
0.3576394337590457
-0.4032410094244762
-1.5965939603440604
0.5890338142222531
0.6812681944776253
0.09435693203114319
-0.9554944651220263
0.1155460536728042
0.7389747914917955
-1.0929858958488545
-0.9040954547940265
-0.7544864321966007
1.0204394662183942
0.21353642522268887
0.05407470642805501
0.5229209683927847
1.7431551903722273
0.5206097130180767
0.12198531678558827
-1.0545313530647964
-0.5140919425046665
-0.6550227668074436
0.648624700844227
-0.7519931831840863
-0.54717155863899
0.055781695854019646
0.19497732909071872
0.020403234423957285
-0.262214503074006
0.5594740555139662
-0.2553284082700915
-0.0071701351520514775
0.015622016687451841
1.261772283665797
0.7774476523933729
-0.8104355261425576
-0.9710353034453018
1.8384403448098636
-0.1180872697220481
-0.41231772188817273
-0.24568359768730397
-1.6745317047649715
-0.42688046551393394
0.9090691559992258
-0.6189834639826812
-0.18051064420391502
0.30205950647607954
1.0549736051969891
2.6327511933160674
-0.5186819678366743
-0.9091234708861083
1.8098185761836594
0.6445761497684859
2.4316663104204417
-0.8114038636423836
-0.5933650212228724
1.0987132911727435
0.02931897241326251
1.2999916030249006
0.034879459923505496
1.1833410164899243
-0.6362512735833775
-0.4275530704666061
0.5334704857224164
1.7707652626849242
1.2683355480227507
1.3032097213248242
-0.8746967848354672
-1.3262902029053227
-1.2196296579488215
1.760505355576232
0.18123247191725808
1.2475618304552374
-0.283561838896637
-0.36394470712170796
1.4182620648253854
-1.2270594669963237
-0.5051128890622983
-2.019688912544779
-0.7425883636288719
0.05925440571342471
-0.48577876989153645
0.9498617117091153
-0.2177061829194724
-1.601954242579644
1.5598259990703618
1.5701069317686354
2.772142196756831
-0.6139560012429195
1.0351801381755141
0.034975728194809326
-0.2069762329755976
-1.5158265834214364
0.757426168770778
-0.42475514015550575
0.4203223440466659
-0.2550391859271747
0.06204442108980351
2.675485371036896
0.775396446705133
0.7752144073973939
-0.04741712007492485
0.3654256278273636
0.85275993782941
2.743820258933764
-0.7100785556016348
-0.09568128682534077
-0.12410604379833745
0.36413583374862607
0.7188108463953671
-1.0896087309382176
-0.5637354741686332
-1.5734045978111548
0.7281216130406928
0.5680472626098981
2.248098738404736
-0.0789662801976803
0.4708108798091074
-1.7068075070055104
3.586748734367624
0.6882074653505307
-0.966155877280075
1.9877380668040263
-0.8290991050418368
-1.6097368023004088
1.120046574500026
-0.9362197344721207
1.405079202683926
0.22202583367823256
-1.5085969805404222
-0.8681323714151726
-1.039038999407997
0.938588700221119
0.2426282873314162
0.024390521296775027
-1.5895685477144017
0.48315338291378235
0.30471064905389256
0.09245438991465559
1.491212982486
1.3093956145804722
0.3496149207443697
0.6138774372360607
-0.5628995766739447
0.5520575899233412
-1.9319254840433593
-0.22826778125926603
0.2010300945263168
-1.2160239112009463
-1.554561318402402
-0.2079848522324514
-2.0116614086141595
-0.2664815610281313
-1.822985228102695
-0.8936792811500274
-0.6645531108706908
0.8365843305123872
-0.37216062598007443
0.13710010454796354
1.5512323080471948
-2.0518729099275825
0.1328272415973778
1.4363341374173342
-1.2722045454036472
0.6143105946207981
0.6369769168360856
-0.20865975063869974
-1.326605862803753
0.48488465534415365
0.45210800347988317
-0.2682212736142495
0.417421357065122
-0.3853122725065585
-0.807610017476441
-0.4654151989044641
-0.2587028288919676
-0.7693059305162165
0.5266428430794633
-1.3561176852170802
-0.569479564113463
-0.7595024754252849
0.8895898963888953
-1.0301002001096373
2.392472891673664
-0.2797590593279618
-0.8336060900537723
0.9738223823770509
0.8777129245997444
-0.27393862399607133
-0.3937947650269854
1.73352969664274
-1.1374881536183417
0.9677962749429362
0.7693020967844524
1.0617783948153618
0.5401310924656725
1.7613637514445106
-1.1590138657526408
-0.6792078759657515
-1.2477204767584085
-0.6269707188879367
-0.10939952666406967
0.053793484181050163
1.0548845727940817
0.017859995627499355
-0.05156844595090556
-0.45171332247268153
-0.8733490803058185
1.0686608414212806
0.46751747116156234
0.4717443891780666
1.2621715397972622
-1.0856624488312174
-2.0681045028023357
-0.62001959389848
0.3311066914564295
-1.1284083910201068
0.5263196822762553
1.0934308435885802
-0.34438601052853346
1.840845429625748
-0.47422023558299115
0.7267540649410894
0.09894973625325407
2.1344944449114625
0.38983121588475755
0.7303394658673174
0.7815752451826404
0.15870377633616628
-1.2667340930903737
0.8191942832326754
-0.6718620352151518
-0.316363098434497
-0.9901076631956396
-0.11690051052079388
0.35518963335576054
0.9448113515293172
1.0419045856611748
0.8408951461741481
0.9742463215564233
0.4003930109494732
-1.3141779928268502
-0.18877090280793346
0.9476314076440249
-1.8237213623436153
1.3481960146896426
-0.4373310508026062
1.5019661649276368
2.0914950228835143
-1.0364001338221742
-0.34831947915697165
-0.649193417649817
1.2766383139850686
1.1206957905478323
1.548409420282284
0.23686535061809552
-0.20615262368335902
-0.7046479247199485
-0.2697406223791934
-0.014873971995665695
0.3155142032246515
0.6576233333692282
0.8992970953653346
-0.39789144615277233
0.9128945549487031
0.23343458869976683
0.5140032505271863
-0.3091600723501299
-0.02768355354687299
1.4296315341593095
-0.6196436741454453
0.6583646365584055
0.8088491448797857
-0.1786565523912057
0.9569343003804249
-0.7446632003095903
1.5537601886084889
2.63790241465194
0.29711043215987815
1.0729385857783684
2.71637109568931
0.35191195509315015
0.40877651886984273
0.9328927751646676
-0.9031257696597806
0.47916428955515605
1.6314505533954422
-1.048460994676544
1.415934686014766
0.06789536629112468
-0.6305932206430486
0.00874539431055397
-0.6114346709522892
-0.008333052222807589
1.340911476988325
0.2749762627573014
1.4143391688096951
0.8422205587399451
0.5061875594220088
0.7761634639092504
-0.14307286516876458
1.0562381671488874
-0.49696809497235467
-0.72693184623038
-0.4966138353399379
0.04060570740161862
0.5637227012032412
0.8124334352906135
0.4726315341945974
0.0532375766372117
0.9456469570743063
-1.3055747334738979
-0.26913481880881024
1.2011733328666476
-1.656564490999469
-2.8975788876694666
1.0846979139878379
0.774377463428133
0.3230365552594527
0.036612920121247006
-0.32042603867622776
-0.47479199826538104
1.5232303409345798
-1.3596656853305866
-0.05365378705299156
1.2907204461513808
0.6466155590347228
-0.15738386900842957
0.846406512247396
-0.7117634519940065
0.6983448466138146
-1.6220103819162046
0.3178653737569079
-0.07595695717712052
-0.5396091930872826
0.2758073354621147
-0.34947218680682834
-0.01144073442089965
-0.3308124863670629
-1.2379274281950703
-0.9265690011777322
0.24455647798654714
0.7792115876298774
-1.0792299098584415
-2.5984067692445407
0.8067022176605422
-1.130170616011035
0.20123844529999932
0.21685226497546312
-1.2549317939173443
0.17107357826184122
2.0075650891583767
0.9386212627346188
-1.2881253872618355
-1.4477240692495768
-1.2443800240844236
-0.5916624316512272
1.3004431333204867
0.16390454607793728
-1.5431223697459877
-1.7857020085451103
-0.15487624799717686
-1.3081658276714803
1.2842117777536797
0.30145426248404095
-0.21141433230102397
-0.39222593092967173
0.026889441357155725
0.709975217507963
0.4887931113276113
0.5268439281399837
-0.8366896421177848
0.57388368024909
-0.4208451896409187
0.2423022712235686
0.7135017349067724
1.3227666916365888
-0.9106806443885999
0.426090206079963
0.7199704581119064
0.35059285845742494
0.8531077392078777
0.6243710168759059
0.9329455931359666
-0.28953537649853195
0.05357377349132769
-0.14053416058722704
-0.22238445944974902
-0.1941157253006319
0.27169063192570453
-1.7361797601877096
-0.8904948889772042
1.288760603396723
-0.5515138018815258
1.4810916478308747
1.2514663976221807
-0.15453521306101461
-0.14796563130508167
0.6975803905229754
-0.022684980935318257
1.1341588806842668
1.1864569873196238
1.0150841225500846
-0.24583102383006875
-0.49535179061487555
-1.0779432993692302
1.4823276191606956
1.0121492386690625
-0.7167459795840511
-0.015040157669642396
0.3879747580864926
-0.4509259021095134
-0.4195409140436522
-0.9127897990223999
-0.22048863020583406
0.7126924377247339
-1.2256101925435992
1.4750780257807028
-0.8375157876574519
-0.6632821068328241
-1.1439984902119165
1.5914654470298806
2.512773890445663
-1.1484656388041807
0.9622762859050188
0.6400560107738167
-0.7024961951942483
-0.6727260134230593
0.3600725740597321
-0.9979312878177764
-0.2638467507882611
0.9761353960813692
0.7760499585342132
0.9099982280213408
-0.9675830157438615
0.6384427723132008
0.17944453973089547
-1.815948594923871
-1.0370883933824957
0.9786322493663663
0.784159896257587
1.797581978203425
1.2620221848820787
0.6744864813002286
0.5731339057415896
1.1217161784306535
0.32653972030241246
-1.3652198837882938
-1.3539636072344958
-1.6477575080348181
0.47200442207751236
0.8492946681787187
1.566312922552575
0.4084958550914727
1.779238647430218
1.3743974489667459
-2.0859892753418463
-0.8187845785342895
0.30849108011743104
0.9574070704201574
-0.06139949578382191
0.5911662702476457
1.2032416318102914
1.2175185663484738
0.7907654978161371
2.505628719112661
1.4748785877807251
0.8930288169081742
-1.4302031455040494
1.2394898990327647
-2.5037466087029863
-0.9578838731053569
1.6494036622567172
-1.3224268411589186
-0.44646573135131173
0.5022294711052605
-1.7932861647830516
0.2384947538110814
-0.6677372168837363
-0.2416128808257439
-1.4660759232662766
1.0503970412525097
0.511482994267075
1.2093167602300352
-1.2085284163096277
0.17003173152493728
-0.17480123182804433
0.4487380722661089
-1.1455553329132793
1.0445149463228613
0.9726184598320947
-0.1691141765256084
-0.004658864701799734
-1.26293720081322
1.4242269970904804
-0.9797718126311893
-0.5805052199258687
0.9639850967873242
-1.1595816859783823
-0.2535780624243585
1.1698043133074267
-0.34665892653975255
-0.002318354271514044
-2.3338570532345253
0.2805208652306713
0.12236110646089365
-0.21113875665856716
-0.10408310732944279
0.7347340752211176
0.41184878275217957
-2.022956112297804
0.7292418959292124
-1.3546048248801108
-0.014401696252022119
0.036840423136705935
0.2898272210142994
1.2176607040967946
-0.39445722936271893
0.7681062397908085
-0.27484544359755775
-0.10806774047042716
-1.2039798333366443
-1.002637765478235
1.1594599792238631
0.3340138578195396
1.2605745387930187
-0.5685660548678934
0.8187909896242581
-0.6403169791380284
0.3901360040076511
-0.6006250040865041
0.34703124090510784
0.3883112047421891
0.26891927126339826
1.5716096716685026
0.3950541535677738
-1.3030555364841943
-1.23500500298434
1.2504667514356347
2.1796375410716116
2.181477932457028
0.7737397701929889
0.6537629834787099
0.3785090797490548
-2.159603572520571
1.4386783891085524
0.5018639994991307
-0.2577116285591541
0.5865975109695722
0.9860452410737249
-0.12276004864453022
1.403150902380534
0.587608480063493
0.28798351952934426
-0.19526170874741655
0.23652155956015167
0.49495688018451783
0.6972192682917109
0.6669507148225885
-0.7708502124147113
-0.6828473536137394
-0.219531054056274
-0.6000930495180822
-0.34313287095039285
0.33667170898123533
0.6520515141107208
-0.8922729609768789
1.400729252771336
2.639952087091098
1.4432138098477372
0.6370354308537794
-0.47075209463297074
0.8555133844174898
0.4936865588828485
-0.10756149643067464
-0.5469196132643933
-1.700064056260138
-0.6068259968129678
-0.3299705929624119
0.18680386641305496
-1.6280913557730774
1.5732870647942516
1.3058536396842546
-1.175481398690554
-1.2228973424503238
-1.7960317005571376
0.5877701569266308
-0.7329469164574137
1.72695823994451
-0.8029268907391349
-0.4804048191439718
-1.4355618787720779
0.9624099937338341
-0.6395611485078134
-0.04712651347643974
-0.020416776265383255
-1.7974755870248482
0.654375360890758
-0.672439143383733
-1.6112331592831217
2.06332542633435
1.7842113687989976
0.5897860776477273
-2.443023607846422
-0.6379499898033673
-1.6937760070112584
-0.7177113744678912
-0.009698945492114556
1.371587925188168
-2.087797379266862
0.38964728143723265
2.1717195903371254
-0.6604088348594533
-1.453732831099535
-0.28415900029849683
-0.9990737393871894
1.2006738221277176
-0.9048849423764921
-0.23453480592874526
0.1552183978574812
-0.12560186617170388
0.20228829470943044
-0.8474482520089676
-1.8127233384669603
-0.2604867282885891
1.4547709515655947
0.24480812966181437
-1.432497904566588
-0.7122616385387633
-0.44875053022637684
-1.6436729003811024
0.30972526348053175
0.06619091966162378
-1.3825014336915826
-0.24599480208052635
1.0922428055104634
-0.8940758286737646
1.4552447289485917
-0.40534567892611734
-1.5637279990283033
0.3639685948666292
-0.8229953533785397
-1.1062818498921678
-1.1692546963719566
0.4950686584407087
0.35420312774164603
0.1427549520721361
0.3023041394617009
1.062807110002462
0.3750751414683588
-0.10613315705664836
-0.4167501698983099
-0.11124225523290916
-0.2869579013569385
0.016924654601217174
-0.4860416508192227
1.567486336509526
0.46091978791394606
-0.6608679554061334
1.641915749789761
-1.4865509912429724
-0.1586758422023054
-0.2576714652421679
0.08045663456356547
-1.1443742671256398
0.6654713029070305
-3.5501988278752594
0.6325575731688677
-1.2782419425891436
-1.429062173635821
0.3686899588491937
1.8704656734849459
-0.32832325030025505
2.3193657185078007
-0.6350162146453042
-0.16984689419492485
1.3307948439554056
-1.8515102472540692
0.8565112588571525
-0.6380516057657213
-0.45219553127081846
-0.6022315572036542
-0.8959064112113766
-0.3388900562872243
0.8728606178519472
-0.1377237668183775
-0.036914786296890136
-0.08071461620769348
-1.2184451167030195
0.31320590417119215
-0.41874471765936616
1.8207882430084252
0.4937455375197067
0.7487738062907583
-0.4842639786144902
-0.18047113538359785
-0.49141390894681736
-0.31948191663150494
-0.8451112249798314
0.6201280890486313
0.19186082631060114
-0.5774072170438953
-0.8979359584796283
1.0279648808802897
-1.320630686450997
0.013990691647618327
0.24371296254235145
-1.7562823753065675
-0.9467473159795544
0.5586405091635955
-0.9090246270880452
2.1691525543796217
1.5179120445195469
-0.07781589592269174
-0.8818193567696344
-0.8044035758890307
0.053745108073046235
0.21609299264645
-1.3993690726847938
0.2821776840890449
-0.30829720811171635
0.633920556870068
2.285523203685159
-0.7943550367412275
0.981279138181954
-0.9046316609846086
0.8552034576531891
-0.16881022596629333
-0.31733541639247737
-1.0376144350894323
2.3598925216368234
-1.6867830866438065
-0.8096784565239104
-0.015124387897836608
-0.8310667738190641
-1.047394780229378
-1.0073110295303427
-1.5618129519025827
0.15404291872853584
0.18760458462919483
-1.4362262753342836
-0.7887820304355254
0.29466257459111095
-1.8345037709351333
-0.17015822650142007
-0.15270678154381948
-1.4024733560508198
-0.1324033055704187
1.6836870355328308
-0.6633274496615047
-1.665899336744829
-0.8127296441208971
-0.8801573614595266
-2.8270717772397025
-1.2720998370562144
0.7506380606997075
-0.018310818541682754
1.3702650073988931
-0.4046831233238333
0.31298648836393234
-0.2877887420641846
1.1255708851716713
-1.2452369778251677
1.487158952779093
0.9044969439603321
3.364777455659385
-0.7247672430970397
-0.6305609967569575
0.24517278696433945
-0.018869702148190722
-0.12265221573687941
0.8815143941290563
-1.287575781475266
-1.0932053676160287
-0.7955890271704418
-0.07749086527078826
0.03330109208315743
-1.6314414846573388
0.3772635351917015
-1.2701004751974738
0.08039230007541726
1.6924806221296291
0.42971906148643024
0.13596644273300565
0.21601291500359054
-0.23529049513350417
-0.5996226938368463
0.6814421238144541
0.6488881708984823
1.1139680852892615
0.8285795658823784
0.013294221664345145
-0.10204738868780851
-1.543853777858536
1.6312672871435134
-1.0221637999109316
0.3314750530667478
0.9861587386195598
1.23984010969518
0.3786360882875392
-1.0326040503840224
-0.603868654443314
-0.9459140869663957
-0.4535787196084077
-0.4296850768453982
0.7303431672121495
0.9514114854021647
-0.09559002545038314
0.29849213192897084
-1.1571293419892277
-0.9151718617953575
0.6989266923124883
0.35527803469367353
0.2833097582933094
1.2530096179958778
-0.5986146858583238
-0.5764245343274733
-2.1011573944136286
-0.8446033649921416
-1.2638525382475323
-0.211862195444709
0.32006495495470116
0.009199006288799223
2.026645614499424
0.2659827217245197
1.0622599819393996
1.5352828651622434
-1.2577528765980535
2.283113677078175
-0.9747813139181929
1.7143187330703862
0.43072101529259077
-1.8407956207930574
-2.3023235657259127
-0.8224421446593093
-0.7763088809228822
0.05889870610729124
0.9629765027957119
2.1757026461993507
-0.6220555364018607
2.151702517223328
-1.3772935751333117
1.3213560074998463
-1.3406040450425212
0.7862637669958243
0.022398714667262856
-0.5105795794175805
-0.8393580442036365
-1.2090750437397946
-0.04209727715349094
-0.24294730856726715
-0.23194842295424686
0.9075408567832862
-0.7868556436244319
-1.321315897518431
0.16457509889179403
0.47244110987897103
-0.29725740548709834
0.47994856416412135
0.3457189104040947
1.8187958994530986
-0.10406514368189214
0.1472647403943167
-0.48573906660625776
-0.5866827171931268
-0.9496421665507783
1.6328154103295505
0.05224097989340767
-0.8435173206419616
-0.8105822221563352
-0.3044383089188663
-0.3400724987185982
2.055449742012943
-0.6844514159926451
0.2614878793428196
1.5147239038792535
0.8745406521060424
-0.5367647419184358
-1.1611262703641518
-0.08152046985855908
-1.0703655554089802
1.1225523270467448
-1.008025103940945
-0.735291715820134
0.5964757159646822
-0.8665819314325993
1.0612528671336716
1.939384628540241
0.607620374410529
-1.861866090373658
0.3767786621766271
-1.0671531276581523
1.8452240307225165
-0.7267877055822012
-2.343568583767418
-1.9905834931017543
0.6963578275679126
0.9440453481452787
0.40960951301851173
1.5453770509124038
0.04817259885445834
-1.8371605769654977
2.20436869698466
-0.15201665722241953
-1.3399416919518754
1.0350662573851463
-0.791142827514411
-0.8072960238392095
0.8012560672301448
-0.577718197229798
1.3689734984125612
0.4628205145902088
1.3610836069841998
-0.16690865362642318
-0.6191611518973851
-0.32194202596970073
-0.2677394446747469
-1.374310667497067
0.9651992185883103
-0.6243510879604559
-0.9335545653035616
1.1475356688052918
0.18188576878387033
-0.2413561207839032
-2.1936958246441804
0.46612955938575296
-0.6244346357498413
-0.5296437271683051
-0.14808875034134167
-0.8739764832926313
0.9693409103214766
-0.34609193665810833
0.02775276435722641
0.403104934399528
1.6650454019848078
-1.7845546858462158
-1.748704069250705
1.879310364343652
0.5263494673418009
1.4108348146091672
0.7165735115378039
0.5834072691425839
1.3495973419456224
0.9623147422742095
1.5217489648272249
0.6819761819856018
1.121894910563703
0.6959964369614252
1.4880126845816335
1.7242271597775978
-0.37535702051886555
-0.6649772436616346
0.8851987678039112
-1.1682293871591227
-0.9197083817426022
0.27330578401740463
-0.4537398066900933
0.8423623454234693
-0.6055592448226147
1.0380484647129289
-0.6435401103372053
-0.6069366746761433
0.8363182260890462
0.06984827055910311
2.122854627561218
0.9507958413734476
-0.7358308773153742
-0.47691639681500636
0.5500450809180577
-1.253146332349162
1.5322796427323877
1.1514019731899519
0.06274009032698623
-0.12765513574606432
0.8354550108896253
-0.10637307454525557
2.1604715889529604
0.12527766907764493
0.5328601913826877
0.1932638258541036
0.19636888303445726
-1.191217905314312
-0.4994098517601201
0.9205793755642712
0.7363657166382316
0.12897220568733714
1.2755666590166945
1.0217215636008177
1.3418623680143618
1.1966797321987082
1.9124532396148106
-0.6167493869291779
-0.5613655327501874
-1.1251614404771384
1.1015854104240443
0.3590341998561905
0.5651905675187155
-0.445117144609734
2.4344621794551666
-1.2020900383282713
-0.7706020894615363
1.3024933261404517
1.58121987182999
2.2986964558549583
0.8939764500942365
1.1033467843604041
1.2749374768521904
-0.6438752395424846
0.9626839035435926
0.5141838129502746
0.35205593762959375
0.2692923740903081
-2.0061459931268146
-2.351165762993968
-2.72203010434009
1.009432272904416
0.27060936737422264
-2.3230738665175523
0.5598425389486539
-0.33617983085073333
-1.7671973364875926
1.164702563247806
-1.181632993126213
0.04401381689673316
-0.14965822404407852
0.8140790633818638
-0.5962611524093574
-0.8505439250553053
0.9149682440021238
-0.16696421798896727
0.6047588214406929
0.28301911850277256
-0.9854972437300792
-0.3728268413903349
-0.02842414346724434
-1.2781972826157033
0.03730751661187954
0.8163332481824518
1.9683590018725912
0.0977125801649829
1.4470274381106245
-0.8782493952867934
1.4916561980239476
-0.3803236284365004
0.04921035195595009
-1.8013737294167815
-0.08293629123280132
-0.26809148092774515
-0.9759446579482063
-1.021701178789062
2.1992843329211658
-0.4047923221626118
-0.2456582063566464
-0.979161416954278
-0.0035910565731469926
0.19439264624156932
0.19006114756290973
-1.4810430023514993
-0.6037744850418822
-0.6468660544101993
1.486815371496635
-0.15605174549791972
0.5272358161897436
-0.7917658046997096
-0.18998106615608998
0.14704245264958957
0.00413076928961553
-0.8914653498117385
0.20787972495474177
-1.8158038021656493
0.8426827925569763
-1.9725726001022021
-0.5631297823889959
-0.0010931469148171208
0.5903857839042216
0.9520843441735753
1.3840600160528713
-0.4135309402827463
1.0281426801023905
-1.3435928574789233
1.4471809320700666
-0.3004364568687618
1.4559126701119658
-2.172396367409673
-0.6304970251674109
0.44559975190350676
0.3956144914849641
-0.9492046175533844
0.9138639106703916
0.21764839504398692
0.19263070112892974
-0.8076809869112859
-0.5744643883704569
1.6208253397054169
0.8432847075221459
0.4024073778743513
-0.9253076675140011
0.7721060004491841
1.1990842826469108
-0.511027157050283
-1.2789909359882552
0.4548307274155175
0.3617473348769071
1.3003141857914677
-1.1245231914259755
-0.5867573280038996
0.6653670120796048
1.138795985460173
-0.15179663184133765
-0.6557656502447647
0.7727218097034537
-0.45929118374111383
-0.3852269378352407
-1.6540514757477935
0.13590198027151992
-0.00811429150824941
-0.9529573653936203
-1.1618810668219233
-0.8634853523279822
-0.5006331807701232
1.0441506393318134
-1.2244777800012605
0.40251148495117856
0.8317608272200798
1.424720279002838
-0.34757274766516
1.7916652553373897
1.0187580247369656
-0.555194001156593
-1.9761597514185154
1.1667457670359846
-1.156429814068229
-2.0627555391265755
0.49029196928393787
-0.35710138288044874
-0.09929305193565838
0.22637155015122193
1.832564134000938
0.35588006170106096
0.5171383813482716
0.05869061550337106
1.1110310327019557
-0.5001883097852747
-0.7322418749470636
-0.03215165049310133
0.3095774089975701
1.5638071144635015
-0.6330192924702553
-0.9872037092357319
0.9804675850316382
-0.17882547682843877
0.9148183353536598
-0.9699992614927019
-0.9847360060125991
1.0110143654651156
0.043577060740012906
1.9200468184420167
1.1737704395585078
0.09489360883996105
0.09221820272330301
-0.9691465941875711
0.04618285401670027
-0.3794659518026085
-1.3072627410725475
-1.8916645860870478
-1.0046347596790486
-0.3395327968621871
-0.8670421081620022
-1.5012633226587089
0.44151177509452966
-0.9496481902198816
-0.329722304711409
-0.029157579840339527
-0.09529616087943665
-0.885559180515157
0.08725976922738173
-1.093028158823393
-0.7035203768450191
-1.5027024076085949
-2.6168849846093942
-0.6000873096230843
-0.7842927702775929
1.058129868640503
-0.19796360102061517
-0.6565102018255566
-0.9273128089817061
0.2551583489974894
-1.9106622774313482
-0.5289014198613033
0.3133909058689655
-0.6800642102478539
0.23697139531733546
-0.98463123455899
-0.501566360903473
-0.9096952329790637
0.30215048073567863
-0.6250330554503221
-1.1205800748439394
1.0750051447684856
-0.5992094302120253
-0.6301788840152606
0.24806613916947018
-0.3117817288806691
-2.1886914821542933
0.8355853272672793
0.6243471635263205
1.697425524250677
2.283376498239183
-0.5581300008790469
0.40940398280378343
1.26558247099369
0.3802043859561421
-0.586029658404695
0.4020024139738871
1.7135655640533705
-1.76374956261748
0.4082081202499566
-1.2095571359060602
1.1295089509339125
0.19993968797823816
-0.07030086775280682
-0.014527463407642209
-0.01720052964060872
0.671514688342297
0.39831264142490136
0.42462732172717327
2.0454887480318265
1.1822274768379828
0.12336630444332308
-0.7382598044448189
0.9414083640153478
0.6909721983329277
0.677275686402911
0.6489748623628564
1.1536695744611416
0.4111834880367253
0.6046691943097856
-0.009358269909099513
0.5153962184125764
0.267076816873273
-0.06738368151685736
0.6897671677398144
-0.7432128457767496
-0.0741406376070621
1.9201342414296518
0.5519314063377886
1.1941077883307127
0.36336110007139466
2.1536310756471377
-1.1032387125293264
-0.5767320621723343
0.6392347213501078
-0.1718884829022117
-0.2662287187170739
-0.43753723759819896
0.39451113597335
-0.6529190298486297
-0.8313765775142555
-1.5655099782726773
-1.3310656514617467
0.4715519051718517
0.03850139886032547
0.2413965964698528
-1.287087331884333
-1.5236993600515711
0.8088314740284925
-0.24337312939877057
1.6377041307805569
-1.4243257118793717
0.17570458317545104
0.675653569482421
-0.7006958033355584
0.523292787781607
0.09362484246450566
1.39042579873991
0.8606128073163415
1.1802999172795199
-0.7224010737976424
0.05805789454994582
1.166643405465388
0.5356169187469872
0.45269005604736745
0.0405754228273205
-0.8799015718953885
-0.29767325144726414
1.7616822125755616
1.5579451433558
1.0780362567752664
-1.8026790291187607
-0.37829347984142025
0.9661760916037757
0.25152843268549263
0.1562908105193569
-2.3702855021457587
1.6685029131254292
1.053231596563342
-1.6829439577891172
-2.008762562226006
0.4047246657439764
-1.1912504623857973
1.2383217533504516
1.1220521883059698
-0.09714440785381204
0.4755560312149742
2.041406381811067
1.2327849743174064
-1.1660163228784244
-3.201844432963724
0.5609266757040452
-0.08664310811698452
-0.8075687082487427
-0.43512707795865785
-1.3141000487976808
1.5404056321376751
2.1249081072393112
0.597780014554029
-0.6053752827718794
0.22800504564244975
-0.8874819774030868
0.030382793522321164
1.5362379173806338
0.25393694603933387
0.9850412869752547
1.4461138805700002
0.27080178060110827
0.389203100412244
0.5374005167804282
0.47053486678715245
-0.1565790483236519
-0.6283144955426541
0.7610279684048114
0.47361435689602666
0.6770905071319188
-0.8948084301670843
0.9851525129622716
1.026242653982723
-0.18991996373934117
0.21491778314533266
1.1704285625803743
-0.4552199615483184
0.7112314807725283
-0.9337183380880216
0.6245869127650019
-1.4332327966065155
-2.1072826780330782
-0.9819172928042804
0.9514960164313825
0.6390702463597592
-1.2931021307554385
0.17667674473558576
0.32293628107597516
1.09944420787913
1.695439506385465
0.6544782537063719
2.432062888193957
0.13042260340371006
-1.6412186665378143
0.2826533573264573
0.4467789970674319
-1.0359765552665863
0.10537455078906105
0.5974752065710631
0.6397202554803686
1.313349827714292
-0.033083262570123714
0.7184953366663298
-0.22436726488761027
0.7361480375369059
-0.029237656323257262
1.0930186917438924
1.203783107009833
0.21596538715592734
-1.135537387298156
-0.7256306141299411
0.3373763610188568
0.45840199621738204
-0.39977507571450427
0.9928003216656356
-0.7751430621760741
-0.32537976569947
0.6362960052718697
0.7599442263697963
-0.3640575144348663
-1.1061481792483379
-0.36444826254104995
-0.2555170403779423
-0.11104148895298144
-0.9225305360504803
0.9428040882245445
1.0484424811681232
0.9819049031542343
-0.17812310378075358
0.053919123701903666
-1.3755845548194376
-0.6789025321090183
-0.6417472446930638
-0.6002290686016325
-0.3067366359299861
-0.21859251200041718
-0.46893785557845685
-0.6708835008932621
0.5388531303887621
0.08085078485416582
-0.6688798381072361
1.2964831186803965
0.21220127903528996
0.476455358863225
-1.5367398404706119
-1.29335604064369
-1.7284365026127948
-0.7594797338349656
0.29515401786678935
1.1424582390789846
0.10955133769426006
0.14732028545911285
-0.2149890532499132
-0.5514199875268166
-0.8319313590113437
0.9274221072104843
-1.423908015213285
-0.4476333385858549
0.566450454213416
0.3258946275192098
-1.7032073643582446
0.13414045055673626
-1.9864060117832871
-0.4019751741864876
-0.45618572881463726
-0.7532448150691314
0.5573351903717118
1.1858386399451974
0.649830816114218
1.5849218846484532
-0.9068813869345544
0.14866748892489054
0.6343340637388676
1.7542846106651089
-0.10607448060823355
0.16423495050343104
-0.8702790232035478
-1.4802923776452621
1.2179775352795021
-2.8004807223053643
0.668464697510187
-0.251127903322862
-1.367757550350284
-1.8467133658938195
1.4018146452688882
1.2935039117769507
-0.28478940921772233
-1.2054584132752604
-0.47568992467910065
-0.04750861510931753
-2.0523251047256177
0.8933651444285943
-0.6758446118499412
0.891256336175141
1.418975605121009
-0.43442577385739883
-0.8472515762529174
1.7215485651523903
0.28899468499889996
0.7081375960030305
-0.05638468298558925
0.22911566425902252
0.4412304265586977
-0.6520103537796113
0.7487675151387614
-1.5244792774565703
0.8705305841500611
-1.3239887949415472
0.2572629991414348
-2.3367647840697736
-0.19876103981438864
-0.2606389956021271
-0.9032384383591276
-2.582239301275493
-0.05384212628658554
0.4892764880446497
-1.0646938235252392
0.6601336154717667
0.5352250310551085
0.0855953621017432
-1.3498690955289203
0.5592657971775409
-0.21330161382782925
-0.13645655915148364
0.13704686420920795
1.8904947847833267
-0.19347711185543298
-0.5771938641560932
-0.45311965725437525
0.4137834216848605
-0.9875389616009829
-0.5703587006955665
1.5911762376221488
0.8110522315860593
-1.6252441985633013
2.503207932928077
-1.1018683253506951
-1.703928240536991
-1.414469270931262
-0.1807172499902099
0.8518184363050424
1.6517148630178884
-0.01233639538485313
-1.2898056321307116
0.5698573362020075
-0.8884891242937587
-1.7411824221459857
-2.544976650634229
2.8587090670504822
1.1195635666746224
-0.7173206796236945
-0.16938376993292248
-0.6191621100706548
-0.6456282423215084
0.7509591835989944
-0.42038223154848164
-0.39905403695377706
0.2032736750953464
-1.4279569100873786
-1.4513856965634513
-0.20393966421866921
1.9174212999745173
-1.1673620945776908
1.7877959178162663
-0.46294434548136565
-0.21991450150013298
-1.47390311840799
-0.9586263704666382
0.6504444216032669
-0.6576568954110258
-1.4649009717364967
0.9555132169212723
0.9222047283896975
-1.2335767201915908
0.873932343346559
0.5245869005479097
-1.5346263652546848
-2.1727071613065556
0.3791075283618365
1.1613648902121363
2.0805865188359056
-0.5213425725940163
0.5178876562535463
-1.6336447242175745
0.14554204690973643
0.6238469717018693
-0.1321203033783125
2.26165161067501
-0.7301582616333613
-1.4688347782250297
0.954516849047692
0.9508271888126691
0.14274024850573883
2.803859696725807
-1.1366864889515573
-0.44516959365957365
-1.2861956814406434
-1.2873771124123008
-1.45606918665428
1.4135268265782734
-1.4359495079358064
-0.13849188940183618
-0.1142917191637138
-2.007726982168785
-2.141815700880531
0.23494798948771417
-0.9145435040965927
-3.5128650652602325
1.3349658575895287
-0.8839247680606058
0.19171909600320153
-0.7598890198526022
-0.27996694569919506
0.21755634234061388
-1.6558899198359667
-0.9509097289045801
-0.96661233477954
1.8416349328513173
-0.47186357704542947
-1.895530835567086
-0.09207445617085451
1.1908061464447919
-0.9788265336951011
2.0309167935777626
0.849996821393102
1.4166904094681312
-0.54126211889009
0.6005450382520062
-1.2246871783120827
1.0850373344542492
0.05868255604661083
-0.9880881146203675
1.445114171197732
-1.6429181767990773
-0.13962408963540804
0.3873050751302225
-0.35763244636405056
0.08337777921841741
1.4801809259545025
-1.8873502119806196
-0.04122614460838188
-0.9979061049888754
0.6606403724705198
-0.28124505994482163
-0.42216960476532106
-0.6440544701346254
0.20636431369257005
1.9134191643978047
-1.649464667172143
-1.2260246338721852
-0.1920122454903204
0.8640038154691438
0.2314241732405885
0.9201999529654419
1.320743262767739
-0.9817164353012864
-1.6095363994042209
-0.17914154606648586
-3.2678100766744262
2.113931544544255
-1.2845700431814733
0.41949959796811975
2.1425669800960057
-0.3492982186944288
0.6107662526697099
2.2953931358433888
0.06474726707040772
-1.5448487942879137
0.38250014293974405
0.7213440149954663
-0.5620217816765866
1.0995864105218318
0.4639837213529642
0.5894595167703736
-0.15661844556858837
0.10614602488168805
1.3635177406493448
0.46888864500341476
-0.6638129599239833
-3.164720855170237
1.5330788443413033
0.32931820681144564
-0.014977572381964885
1.0096686270493798
0.19470018385929316
-1.7507919593391923
-2.1213452109504445
0.3607977470292447
-0.40818098265129943
0.8073168297908512
-1.0544508926059188
1.1083148520298094
1.3820218945805087
-1.9570455189820875
-2.664257411927016
1.4225240780012094
1.695922977631217
1.9924213421676504
2.6542947668240235
0.3275442167932185
-0.18946635876951004
1.4387491501998382
0.15348255907306993
-2.143326873422437
0.33608819959786485
-2.9693502365198983
0.965878917186688
2.1609994062198754
-0.8857659351908971
-0.7381664830343286
0.3553449666941712
1.531572508824249
0.7559039605362788
0.4834169483866702
-0.34425020278611446
1.1296721645774555
-0.6317852350865923
-1.6695985931802564
-1.4699108062091715
2.7289147838497256
0.9889031147859622
0.670288260811225
-0.8476362381017317
-0.11814070071922869
0.7289610881898689
1.2685950071344763
0.6687879527084098
2.6169413268655477
1.0236851709299222
-0.1656454068201075
-0.22786060695471613
2.565959266668289
1.2854238862740255
1.1215817445355072
1.058291070768019
0.4372173969784949
-0.13193215671097788
0.0036566231936949784
-0.7553145785984371
-1.6242799954049756
1.1907865978954897
1.0886257586307801
-1.8102034628021642
-1.1092072603159602
0.11520750642910248
-1.1750984625892242
-1.1778844622220697
-0.8974830492376396
-0.6472068643972972
-0.51659197837608
-1.7368727548055287
-0.6650358310163755
0.06093469018149653
-0.131386592293932
0.12149819969871264
-0.22688920706793603
2.222208828840119
0.993271741351076
-0.020185707233123365
-0.14435222932388636
0.7000837981721943
-0.04279626137822873
-0.4396842561907599
-0.2616960367408034
-1.737362002544505
0.5051648876913605
1.5186102157951298
0.23053813339519527
-1.4794556876008653
-1.621261060924082
0.39323705562843275
0.18816700442788892
-2.0630278723217494
0.8157786789588237
-0.03214501381681352
-0.5406695882186565
0.7421248608370393
0.02015187283169427
2.496154778810187
0.05149020945558295
1.6025166587188973
-0.26591518474162706
1.2244746710452101
-0.5180725950050474
-0.7447360741188841
-0.9667362779466436
-1.1722406433710875
-0.17964221115940213
1.0827247749072002
0.3008181191411378
-1.4524931632218183
1.0919498778995982
2.2042908907275534
0.07620198903319814
0.9728838894383136
-0.5122980209082434
0.19252584067115178
-0.15073363674859308
-0.3238910830448187
-1.1125132306622254
-1.0603243856733429
0.9427957940454593
-2.4296074654953785
0.33451601441847456
0.5639606177822062
-0.689684979900946
0.212673230493387
0.4765290290471232
-0.4594802804355093
1.6074788501025719
-1.2381692089474452
1.266530086181483
3.038261964137917
-0.7892371285613975
-0.5883488099151107
0.7442078501472065
0.2003599181426156
1.3597144463784494
1.6384484707201337
0.7316505592490764
-1.2465471884895134
2.185121067426922
-0.709023842692538
0.6767154267551797
0.4042919210321846
0.25757001653141093
1.460268763744561
1.4600840435250801
0.7612812898801109
-1.223742634016488
0.515398470616386
0.20968608191415852
0.1045647802001326
-0.022805684072276164
-2.539225503503369
-1.049622805009353
0.956338077630383
0.8357231539257758
-0.4895831212734092
1.2684305866655534
-0.3498194892519587
1.5680066015819016
0.27247781227495294
-0.708492563975302
-0.284782047806395
0.08410801919260964
-0.2356995814322625
1.1136234566247691
-0.3917917527737979
-1.1811140491481744
-2.134618310692809
-0.5070735769929137
0.8903723053551847
-0.5954180275974995
-0.15459487460970336
0.4979444420221321
-0.11885406304762983
-0.925284856129627
-0.33050067145064066
0.36775434135929264
-0.06429371059024398
-0.9888136284730541
-1.6836609854767057
2.9344973798251197
-0.9535049237751014
-0.9053570298832759
0.0912259315747044
0.04351139998947739
-1.1252378284809432
0.5344305675327543
-0.02620996907074096
1.151637661799564
0.4043202601591613
-0.2741181221859261
0.8454800936477056
0.3490104743678604
-0.11506854489469992
-0.311004973711489
1.2001477088707386
0.09444682609151463
-0.03286616678504037
0.6598506486925467
-0.5434084992088962
-0.4167616548596052
-0.6705457067726096
0.6827803168470196
2.443948163509053
-2.0262684308120726
0.9354392441399809
1.170376106834237
0.4229253846027981
0.6643995737485449
0.04165558764206317
-0.2556121054118918
0.10533235440410288
-1.4044123487586073
1.2844801331823261
0.5173390370243967
-0.10448707476815289
0.7809402957787734
0.8805134762355329
-1.1205144977451138
-0.8893458760338501
-1.1481448053337573
1.3563760956851076
1.421670541249041
-0.4233992543061416
0.700279846151784
1.0684062466619983
1.239210151043778
1.063455717448769
-0.763310769059932
-0.10415409231061198
-0.40464186122357193
2.301915923574357
-1.3898734520935272
1.8772622117619266
-0.41860458834133196
0.6301353538180539
0.5044529902182202
-0.14564594226037697
-0.02878463372596785
-1.2655260233302275
0.12132849941827291
-0.8570399520009359
-0.7412993843574773
-0.043589639551622636
0.5787488222476994
-0.8884780965132485
-1.617448844482974
0.36594717930139053
-0.5482545142499717
0.7473285705617149
1.4581832876632193
-0.7253146101654733
-0.33818059236029513
0.3938220183149568
0.6820026062227572
-0.1429587981467898
-0.18063104959883636
-0.818618518247993
0.332175421170871
-0.6966610694422471
1.9385661666939822
-0.2653545544531057
2.4016677676456823
-0.21181441523211417
0.9817797814084711
-0.9308133583398153
-1.1366366274102984
-0.04718266571972459
-1.183252769660251
-0.4038949961795778
0.2801337534327719
-0.9808747814678778
0.8387163837212195
0.8483271614222477
-2.092626590809017
0.16756846933786038
-1.8020902645786603
0.6630033393356751
-1.6261102869650774
-0.41981335312156337
1.7184752038619036
-1.6145537528297134
1.0519023270587835
0.8639490391557205
0.7343541683196471
2.3129445448508728
0.041156146381278756
0.0027902457166741547
-1.069532807108082
0.856447695591683
0.38019791088847715
-1.3402284522253975
-0.029470640031724737
-0.7114774360755107
-0.19542017528018607
-0.36594055987966684
-0.055556630237122255
-0.8013612745591178
-1.1112779896269696
-0.07055088896784642
-0.4625908135497364
0.7647556771756924
-1.0615973148207913
0.3123219089487812
-0.5229006986326638
-1.940741329294158
0.4892850172135729
0.6428745997055203
-0.13682520466576129
1.6362003888784824
0.13100200074757076
0.7229907031951464
1.6669529242039822
0.9578846061135067
-0.49677671811363616
0.8416110940067686
-1.0804673632956174
1.0245301786935415
-0.21893351222359314
-1.4205568366755732
1.271662224700224
0.1645250615411525
0.0008137068973277168
-0.5216733741755882
-0.30527316381360914
-0.13473568626705051
0.6296460287483083
0.10328422528168575
-0.7443758487412652
0.8919624662253685
1.48489816787206
-0.2560301878368644
-1.663456160269778
0.7101891702701965
0.22928123739401263
0.7845986137709988
0.6431195995301224
1.3148588141963455
-0.800559930678272
1.3887127442842835
-0.9595251068389279
-0.22963529946211153
0.7202426363982197
1.2513158995523914
0.49042146723860597
0.5042334009005912
-0.19948026210754638
0.08044364820305303
-1.4294738632271928
1.4031316600344304
0.9576984608136073
0.4524150944842431
0.7168295506695471
0.9279717937390515
-0.9157224371931937
-1.809359237180027
-1.9744254859039247
-0.0018718132267926905
-1.0281748628519618
1.0609289920269427
0.31944545391958584
1.216632864439536
1.2757312960822502
-0.07385436675308484
-0.4728499151544203
-0.1344522414232476
2.270678586732396
-0.3901295901264077
-0.6108980119222531
-0.9072974563182051
2.317855476074849
1.420907523752561
0.18776119683487083
-0.9147097735512645
0.5732319273841822
-0.35237916498033134
0.37186498012773656
2.348029669869293
-1.377865050134097
0.3638209193880835
-1.4113767653663538
-0.16556984709936398
-0.8800592531386479
0.28345081312132175
-0.90545693509608
1.3378164949947642
0.8392968245175593
2.4209260531291785
0.5422459612720676
0.3098046780765917
-1.394642621415706
-0.4527653230444843
-0.470467984891426
-2.2054249593563164
1.930852086484728
0.15417253419789964
-0.18506393089897294
-0.677118008318734
-0.8664644732414086
0.13205659736812625
1.0639817132785143
1.0654987091674448
-0.3686793353163736
-1.184875809324118
0.6894179409813008
-0.27765347309689703
-0.31476643238132906
-0.279276093986041
-0.5127893105780845
0.37517311262730213
-0.05829141149720088
-1.5676136339936917
0.9952985368212798
0.2563829150412153
-0.24321248194861622
-1.4718953816721536
-2.424640627320061
0.969832259682512
-0.36902211752429587
-1.7223925606163668
-1.405109591731151
0.7385161763916879
-0.4474916705329354
0.6668341532965747
0.342876030882156
-0.7519223273635138
-0.5130798655109907
-0.42032015633396136
1.671794430369755
1.2911716766156753
-0.16616751965937016
-0.9267010069197985
1.6151789819788411
0.5171203763863457
-0.4076870682444929
0.9513705947234623
1.598830665043911
1.2593026631493167
0.21508725103634324
-0.7382688904434628
1.2192348807145912
0.5831208879666525
1.131126628795702
0.06012588138423996
-0.7200980776162945
-0.9542737388276217
0.2876290951387307
0.426088031053693
0.2837058408708801
0.08322344169881565
1.2172859579456734
-1.7376488186949162
-0.5020533026462305
2.313209647025867
0.3958107285499869
-0.12233453578037576
0.5406765476154254
0.8168205207751543
-0.3211978435683639
-0.374626064047173
1.2015161235550813
-0.5777678511182651
0.15968371727239153
0.16120199478016303
1.1802722817746036
-0.031325906144302126
1.2216643524752184
-1.1226453552429954
-0.795497563503714
-0.6358662526796955
0.4206133231287551
2.171007105950259
1.77299251421853
-0.20923497535512672
-0.444970944018435
-0.9283353377643145
0.7552494312925743
-0.2098216078421756
-0.6067851309819704
0.4125266243404499
-0.26644538069571994
-1.5472280532243765
-0.07578579257362783
0.5846858340772282
-1.2446533260294965
0.6730626083892383
-0.19599556552245717
-0.22268657004614964
-0.38668976951069606
1.764731729645302
1.585698259708697
0.7598176224887259
-0.34514389290106456
-0.22701545954642144
0.1408504195316177
0.5247217181092224
1.718654784719793
2.097055180239315
-0.3476161280799352
-0.5880555392001652
-0.9967211924080694
-0.49505739252969067
0.009515918619714193
0.8629960484808543
-0.5408336458924484
0.7713580673174406
0.5244984520285327
-0.2611004842586002
0.5274963323559507
-0.47415071410959625
1.4175072241064848
-0.5249854313496755
-0.7788259007968503
1.98731148468287
0.10694920842460302
-0.32646584540377577
0.20622617504456403
0.031437130456011514
1.1459852700216244
0.6271088362105138
1.2616238604171028
1.0139907911999502
0.6099235932222001
-1.5718355870689664
-0.089367445680236
0.7575989910919444
0.7097978347471764
0.06014788460430119
0.3157224567311137
1.1293873214780763
0.24929397836914738
-1.629211222989938
-0.2947892120801034
-1.679921261559617
0.9083102507539678
-0.9760043893250064
-1.2900349413797232
-0.555376948983654
0.03339927887094727
0.04147391983764294
1.226656174871407
-2.543816800795546
0.379748398648397
-2.414054599178764
0.08113995541404204
1.6836763860139987
-0.7459427012268462
-0.7137657808109354
-0.5932054583571744
-0.4852320270643408
-1.2998226960776487
-0.6297187073342722
1.4575862504057038
-0.8716235606863664
-0.20547489030707336
1.1362233868600475
0.28822253777700835
0.07535669568977701
1.0673162798109417
-1.224328395513479
2.006327134182708
-1.9108208394689743
0.33130077256021623
-0.1563420164993799
0.39526833619927587
0.24149563083390427
-0.6887772718884478
0.10122910252401389
-0.1730653324531222
-1.0275730375888084
-0.07216697453292018
0.027422376255206212
-1.0596909569862558
-0.018960152309443205
-0.11303002721478579
-0.16525514620810025
-0.7420356462439595
-0.962059435956498
0.6872304426490714
0.20659265587555606
-1.0568630645609312
0.47663212585090164
0.450506145493428
-0.03233360048476039
-0.7016116536952656
1.7611297466800444
0.8587644696539812
1.3314535790303743
-0.2140055921072621
-1.9957781105485388
-1.0212487735449718
-1.1082376507786313
-1.198771876899392
-0.24826012610483142
0.4563184831204855
0.7890524730319063
-0.9498917262641404
-0.15983995128389183
-0.4691025876153735
1.6208874277203282
1.0213996051604586
-0.8469779758853384
-0.3508564222223883
-0.9294767509303921
0.2680527971644478
-0.8379090540532176
-1.2756684295299536
-0.9867624438887518
0.8979496517945208
0.10378009996949975
-0.49061102172824894
1.9134467100893846
1.0429006359679238
-1.7065330220880066
-0.4643104586925583
2.361671071316598
2.2408908980821725
-1.700896969359639
0.8110296390272003
-1.3971455524390184
-1.4790520600938637
-1.5923436640564816
-1.1961912929915568
0.4855852890701197
-0.07417613170578338
-0.5386523886143624
-1.883085089095221
0.9600851620272428
0.07440637440988884
1.5807711063560224
1.4401234313780023
-1.4036123682485284
-0.20581428242786454
-1.7596856951441746
0.580063932752854
-0.9616599099141607
-0.5117152840596091
0.6934999498341952
-0.7110493325537964
0.8983600638626021
-2.0257920764471335
0.7575963141049041
0.9171473824502714
-0.06751242915542582
-2.1779489430394507
-0.21693676775136098
0.6056440689744098
-0.13903538859189815
0.33672283544101067
1.5475417401853113
-1.5278269376516718
-2.589325946262705
-1.2766697687650173
0.5534788296087869
-0.1247915923310394
1.973577357294204
-1.7592777671420854
-0.010262990617715902
-0.07636096172523553
3.1450706519048954
1.5937773018265864
-1.186181613171246
-0.45846503764119223
-0.3918632029404334
0.9549198646632745
-0.7814329518732156
-1.631743584278755
0.9892145503996194
-0.9387378721600662
1.0304497190663409
-3.2362973800424077
2.3823846826226203
1.895206302403288
0.648384451603653
0.5102375615227398
0.45926495165771203
2.066529786343634
0.46891048388156953
-1.013530364107284
-2.317720921770201
-1.943096902753636
-0.4854349610921186
-0.44472410029395437
-1.9467963839018436
-1.3194437157426406
0.782727528876488
-1.9257586169721808
-0.1467109439436177
0.9800054100697174
2.7010206219616455
2.0528207346872787
-0.1895535506823615
-0.6997732642358199
-0.8983248305538268
-0.541580763021351
0.4415568387990485
-1.2049110646867087
-0.0324631101763009
-1.8461489404430698
0.8399579164687264
-3.205164173099701
1.3453544713597994
-1.498044973883097
-1.4373908554615742
0.08406453652081633
-0.5317265692214325
0.12818604444852572
0.08848010889847749
-1.2681276902308498
-1.2664548351765321
-1.6009346118415066
-1.1112125123507108
1.0241896406570463
-1.9648957071967128
-0.2754383875147981
0.38155710100154555
-1.886721963317071
0.04122666277099875
-0.6892496785907063
2.051627733671993
2.8001554995074556
-2.5691138011429966
-0.5936593634274192
-0.3065962480912
0.09758010786660465
-0.7286541388328142
-0.4502907372118855
-2.2508808825002875
-0.44425122572292486
-1.1948711450940563
-3.443186918532896
1.263051719486395
1.0077115937720127
-1.430604762854425
-0.6079325595514403
0.3190281953421602
0.6630547266707486
-0.43448242318463
-0.10351542614076903
-1.7934481968033846
-0.29278367863386817
1.6685848438895763
0.793933315248299
0.12522402399002153
-2.01500932492187
-1.1179963453067068
-3.4368890682194806
1.513747716115922
-0.8342764889253164
0.6359403890752873
2.7178544182870463
-1.0061685563980363
-2.9346851350371974
-1.3158877529713926
0.3870952818087323
0.17377973702409855
0.6947512800516426
-3.572722767086732
0.07216036384317127
0.893358082264954
-2.2728179999653406
-0.4784320394575422
1.8752862944046662
0.33906140296175213
-0.11800762008012428
1.310050452323145
1.031343829598767
-0.9845651831776743
0.7945194164718171
-0.9750264874409219
-2.0943320891562376
0.7888874842953317
0.07699635692319198
-1.4438116153539415
-2.757650084504316
-0.6528016595882161
-1.2598109620538438
0.07764024392587515
1.184795846925337
-1.9064675102280437
1.1866851695519305
0.11398971488692415
-0.1448989350861776
-1.1536154586746523
1.2475387646035798
-0.7873744245546114
1.4190063746624442
-0.7238353161228374
-0.6537346248879117
0.4003788976788599
-3.4333598807799524
0.029156545447386533
0.765806966714078
-0.5402436594909666
0.47379700023373533
2.058707257443834
0.542239189940586
-0.1367330086964828
-0.48881374795356314
0.8391854750192257
-1.3567942575647238
1.556962367994565
0.42715318177388223
-2.4381413832407417
-2.1866168403211623
1.7223305078938007
-2.9720671268432213
0.6817334611366336
0.8273077701152076
0.3026642817368039
-0.7435559400722428
2.8086530490391106
-2.1074979011239567
1.5806657500908523
0.702827848120231
-1.2301103692461666
2.624054598438735
-2.3322167413894546
-0.6201650485631307
0.9887046011854822
-2.7804854660625424
-0.49402166886901544
0.5011536194100394
0.7093683118498135
0.8560401649113035
1.385328327445637
2.0547681110270024
3.2130029610431263
0.4353785277824658
-0.2545541831812026
-1.2265973733708144
3.534579839195228
0.03125181183470383
0.20396802195963717
0.3070452576907105
-0.5759102819921413
-0.12418720740168851
0.4603674014784983
0.762060912885311
-1.8862975747738135
2.037828350228454
0.869431779307687
0.5113258710099479
0.6692882969972067
-0.721159523499339
-0.36210043657625685
1.3984946286755724
-3.9021772413541336
0.17163703484465243
0.7086195840190198
-1.390065458651688
-0.13989370849217775
0.830857163541081
1.2799816810304792
0.6197453010012958
2.1210803700174927
0.12023301074947157
-1.281085136822616
0.23141266108411848
-0.1616149500676861
-0.40876051467360314
0.8081767395272245
1.2821932850286821
0.09785382046194167
-0.18886015061353367
-0.5638563860643584
-1.2578671802241026
0.0691370763829312
-0.038235099636059804
-1.253066422048867
0.9668971125501091
2.820940437593777
-1.1834772387504988
-0.9770478524322586
-1.117107164486691
-0.11708578397465567
0.8276762724776116
-1.1592463815968221
-0.19562080490643094
0.7453392342762942
-1.841286954549675
0.48795647367408157
0.6444983095458378
-0.5698366216061475
0.22638315769647496
0.8873831986947642
1.316340696323936
0.856479498988858
-0.28118838959002646
-0.2087289977944288
-0.5688808715993428
-0.03573810150096738
0.35483289491379266
1.995862683036364
1.1447400714266645
-2.0043986366577453
-0.7030423821277287
1.1937975373153997
-0.8798152338829357
-0.5255099176354052
-1.3474053885397432
1.8200598945419382
-1.2826104217244305
-0.30539158637891867
0.6111500809266808
-0.20030081724297294
1.678427206751218
-1.0529482839752944
-0.18110438034393045
0.054033793031135924
-2.492119168947356
1.4558771188230835
0.3466330622506296
-1.4741119330291774
1.0069622717211768
2.1858936303468606
0.508018190955726
-0.5461512280054992
0.06469082823117922
-1.0419907832947755
0.42359877840387977
2.036121144226741
1.1918217223078815
0.628386359586666
0.14531581912306318
-2.0838475715715874
0.21481580345409385
-1.5644322035613865
-0.027427185996997856
-0.2359251089854418
-0.047988335527125885
0.5538797224307106
0.8947710334575821
1.7643377629510404
-1.5429678965913451
-0.513009050189651
0.8227745293526655
1.5615248224245981
-0.1189963573918244
0.4396827363166315
0.3222889886962194
-1.13345941577552
-0.7760435150809556
-1.4206165898443273
-0.3135677925548021
0.7997655063902325
0.38307684910401635
-0.6925201902344411
-0.3196556319097178
0.6582464458430553
-0.018587471087135522
0.7091463473947573
0.10627909810302794
1.11431091521277
2.440326561096431
-1.4380810282986551
1.4169095582180462
-1.4037240678091407
-2.8697510132587394
-0.07021160375413744
0.81776323584687
1.6513749957219255
-0.05035035173527905
2.5137372427884848
0.006958937295714614
0.42643141127270606
-0.243347162537463
-1.0127018017471887
0.4685944638107727
-0.30135417446868223
-2.1805455497778214
-0.13092143857293065
1.1005218125445022
-0.46620383785034786
-0.8095914094049832
4.411549884425697
-1.875871664509429
2.228501514254701
1.296213780702925
-1.4363307641420378
0.5281440636862358
-0.6729507461257562
0.29908481637064943
1.6938513372861972
1.1411454081228214
-0.28961206569374304
-0.9808294998575016
0.32364918726904085
-0.8128512339271208
-1.5864630747777608
-1.4986617141351672
0.0897395398431037
1.0020433146811525
2.318435482925368
1.3057755614614601
-0.4758900110154825
1.3632575176675055
0.6234507203997212
0.25038497041967
-1.1447497996324965
0.5046027687531492
1.767505060491417
-0.03573217383002318
0.7108473695775082
0.2551567043493218
-0.8686512417692444
-0.11788016073930742
0.41765396657794995
-1.8691692656851773
-0.8226668631931562
0.21947086250429032
-0.08640228467126927
-0.3658482874252258
0.5029521438666966
0.9926098420600615
-0.47407150706277196
-1.260529252493463
-0.937292242533204
-1.3000100666762509
0.7341703008760304
-0.09231309390572631
1.08523056325971
-0.18268372163586544
0.6571154667120513
-0.04204772475937331
-0.593207610101894
0.3086169410480228
0.21233432689731271
2.3662078422559474
-0.3778847934506612
0.59417445413217
0.4787572865266744
0.9110091466796104
-0.40617158384325486
-0.8296479823433801
-0.2730483600463246
0.47823574595799284
-0.2971616846214191
0.9169267341615819
0.047519348810674926
2.0719614150534436
1.9579054251812125
1.7272039473060112
-0.7545745706978341
-0.09740081029475708
0.723814749524274
-0.8519427767560845
-0.7762617869911275
0.47264025069309157
-0.30830907882263786
-0.48112498186480385
0.06551880844389668
0.045473801897661384
0.5247963632860757
-1.082375526383908
-0.48377064228752303
-1.577279917496558
-1.5063278783586713
-1.7360528486643994
0.9253672949827716
0.014385222174794899
-0.5783600409842473
-0.33876696751770696
-1.1240019158778611
0.9728059892079023
0.49488068445784883
-0.04485226939434321
1.8389143051793417
1.3550020299042866
1.8714117847118097
-0.7355803944273474
0.8443248984712385
1.4132723376877412
0.8104635952958833
0.4344081978796854
-0.9567628983354
0.15529544825113537
-0.6275052798790901
-0.4341166199758766
0.24358481616798142
-0.2930116485539547
0.7401389406731959
-0.5256650207570701
-0.6195763681241666
-0.38524331707174675
-2.824287484436627
0.17494672037211467
-0.24888918203257593
0.08974963232937906
-0.6489835871124645
-0.7970592025819055
0.46640248587312566
-1.1400209628983664
-1.6929220033139334
0.2931806651772045
-0.2604497566726953
0.027578709350637966
0.09994208891014211
-1.4130296137962817
-0.38982542878606835
-0.3260020074623891
-1.0020462044236627
0.1922751436447192
-0.27091138946428145
0.7268803939453805
2.2651579716578434
-0.6180860001573113
0.8674611940066502
1.1974381584545837
-1.9082534109075722
-0.7287159336382593
-1.1107459633693875
-0.19330016533429065
-0.5400675617738313
-0.07028863515979826
0.6556719309014554
0.15532451576266815
-0.737191327224705
1.339603454537629
0.35135345822265346
0.7360475074621824
-0.3547710411485831
0.9411175080806244
-0.2714328000587535
2.404880866364542
1.351724194323226
0.8528346978590159
0.13694973332950913
-0.33751591904073847
-0.13607363115278007
1.0768024264829077
-0.4152189684034593
-0.5525925621441321
0.7016734110975942
-0.038986662002582176
-0.880547554865599
0.14838722753012484
1.0167538679700996
-1.9261667492098602
-0.3240733230051118
-1.9357048979553277
-2.481544473389568
-2.464027920355772
0.5503341987435877
-1.3374878144108127
-1.165681960776266
-2.196271112994781
-2.3714206167058536
0.8406123520875706
-1.0484429993563804
0.3335594708500823
-0.8520499215723625
-0.5252667935558206
-0.28970118340179773
0.9671543706245439
-0.7533280157131995
-1.0868601850338686
-0.3442620545080471
-0.29828062366171054
-2.0390251924172165
-0.5100978391100436
-0.22350550978620307
-0.2314368223652299
0.6358609405224029
-0.5661974211271136
1.6275927605444926
-1.283517846243907
-1.9126647228236973
-1.258636724070155
0.312176232054238
-0.3953098002983901
-1.552639790490621
0.21513810913054324
1.0972512035925073
0.023859565880345657
0.008742833451013975
-0.3374763273393189
0.18548133585076587
0.7852788050998345
-0.6968582064772522
-1.2289677306118278
1.0504222448693226
1.0826651466704889
1.119978790229666
0.9262088492953882
-0.16875104197709298
0.8543204870106754
1.3734289730412421
1.4337404535183962
0.7654704139347576
-0.08519252778945843
-0.8792231417448652
0.020912713781019502
-0.8157547598053554
1.2163769337645958
2.1479557997804175
-0.3827978608775883
0.9738571310571045
-0.8938117612810362
0.5647832732436999
-1.7455224637041309
-0.3754937822602249
0.5848143667634047
-0.41136002450618814
0.37973501964588474
0.6623653623922405
-0.031073134529138475
0.3168940398938791
-0.8112102221232063
-1.0814724517036236
-2.184280753573342
2.035148195296836
0.9256801420325966
-0.11512640589623935
-0.6094905037725645
0.16439006674271592
-0.595391143712675
1.5335157531587587
-0.37984712379586444
-0.250590622527228
-0.1934694010554828
-0.8326834112339151
1.9865991218292858
-0.5750597988675206
-1.2379318387108715
-0.9912788107132988
1.3337035803247919
-0.339333077243652
-0.5511228653362085
1.0612900862958172
0.023082062865791703
-0.6741376597096287
0.7879622668435702
0.3896297708463499
-0.8987547823414931
-0.23669205779195487
-1.1135764198764029
-1.2433340762301501
-0.28319607463675317
0.032200528918978226
-1.4194082766129696
1.41703069618163
0.5690536608808244
-0.39979869422855846
1.0029719508390864
0.05325832705990763
0.6856151304319443
0.937864488545022
0.02412418168958684
-0.5137454776615946
0.9150200088478901
1.0265375144018698
0.534334882020591
-0.5479403347227525
0.5973233468201875
0.00836804259996722
0.4708545961238154
0.7208569661567845
-0.9475983615765002
0.755089002365025
-2.549464523412487
0.4388897777330067
-1.3300917002122397
-0.5710787942295045
0.48386541012089346
-0.278075589586685
0.44706596227160966
-0.7337845114666858
1.2336017052335284
0.21794898957933997
0.5440786547676366
1.3752528419103311
-1.1617204351624015
-1.84134142232409
1.2915312799116632
1.3121751111307547
-0.725909368898907
-1.4626750215915314
-1.9612137030559034
0.5094547314458427
0.6597345786221473
0.37679856196765826
0.9182884164529168
-1.382646769594016
0.12098136186064944
-1.0032926077420938
0.48821391492211264
-0.548761810409717
1.5813195754883238
-0.09248925716038593
-1.0383227034341034
0.5669392967155149
-1.1929794961887652
0.5564756844059863
-0.5916717945577106
-0.7146399675666044
-0.7673440616507209
-1.7513859033481922
0.09674248489315132
-0.7509891999485532
1.2711042229726333
-0.7742984412460634
0.2641261625516254
0.4815556900342751
-1.125522472270929
2.1128783383854284
0.6310073617955724
-0.24779561922214116
-1.1949782345146527
1.6670899091966278
0.09487475369341061
-1.2370583413476972
0.8250761285989888
-2.7583900413895672
0.7713005921791042
-0.9733194429690109
-0.60539578917159
0.9633750502216375
1.023172182393653
-0.45829111383131593
-0.44772677872811356
-1.8364831353327367
-0.7584846511011936
-1.3660045570781307
-1.7871106610154446
1.4445254183981484
-0.5986733026688118
0.2032419638627987
0.34750592385229845
-0.6326714771819766
0.4285481209308137
-0.37664036665749817
-1.8787372200018686
-0.3190279361489299
-0.008589270627715936
0.43612997767396583
0.41024979041562426
1.3447414558346076
1.149603020661814
-1.1443221487279245
-0.8729913362479158
-0.23939719395587758
3.2025879479099357
-0.724113981954462
-1.4795091269177614
0.8205062048992662
-1.4936066833202033
-1.1739279849280486
-0.1985104870576761
0.5504418040311871
0.7800178098544035
-0.08137621956892742
1.1257047101185507
-0.7338368265715595
1.6175990245541754
0.4971421762279378
1.3099462704450167
0.3291338449558707
-0.5744713201464693
0.9080209079617222
-0.3882607540268725
-0.7434361082846701
0.7612767970152716
-0.7827891913694469
0.9402209835642271
0.37289090596510277
-0.025069216072654926
-0.8929416459276497
-1.0437884699647701
-0.23831724201604768
-1.0459034772830196
-2.2055449359067905
1.3100536956131317
-1.514960877892427
0.12977854090414742
-0.9604132950200366
-0.3391922401444221
0.29292315964417415
-1.1186922857120454
0.25290195763708273
-0.3915093167337937
-2.7419890748234654
1.5127722549844385
-0.34683369569941314
-0.14631608018340392
-1.7449083608791986
1.6668518834578478
-0.12947975885796953
0.40012414014082326
-1.1760269256960174
-1.9573630366533696
-0.790662774164182
0.34165824490976
-0.9887160255046618
-0.41952029894542003
1.1118696848736582
0.5061092946529016
0.7959589472746823
-1.3153549753645863
-1.2014428367581962
-3.515148893622326
0.09054639422855632
0.12824457915114312
-0.454228776163541
0.38512977865706066
1.486281452292067
-3.6554244301020273
-1.269828754150578
0.4478874096311241
-0.05440349597655364
-1.203674892284279
-2.1511833324307057
-0.5926689648075627
-0.7692402088785255
-0.5663152642594977
-1.2478399754842016
2.159045067152088
0.9401396559867767
-0.3029861589237102
0.6179747575269848
0.1292977338406449
-0.6059993218263668
0.1899127750262157
-2.010076313495994
-0.9008054737873691
0.6322032549459988
-0.5738281166502425
-0.821202597816044
0.6415039889380039
0.9402045542829766
-1.0484613014947473
-2.463450782604431
1.5486715162834004
0.2919076206035971
0.0902804028583104
0.8246715804669262
-0.6587849402278106
-1.754915420282809
-0.5112222098363246
1.6955199009452333
-0.11519903162854689
-0.6424449333657355
-0.5987232845328448
-1.3246460401297984
-1.1401467255057045
0.641194215655128
-0.2428351329006132
-0.7061087128023088
-0.4332258603633625
-0.5923917328271887
-1.1909535865386043
-1.344424246476457
1.8432823157560985
-1.5221278676072667
-2.7559265314071073
0.8028768734306735
-0.6093719630979032
0.4975810974582367
0.7414719813759176
-1.7110356033828413
-2.995810276732308
-2.1620898996144406
-1.2113505987755315
-2.3667853346022576
-1.1376670156612334
1.3134656757442291
-1.3444848242765313
-2.6292203673435957
0.8467187533209626
-0.9961420284927808
1.2190449216692323
-1.977397306097987
-1.0155449807978638
-1.1859189885387866
0.1750004854001528
0.09083506947708359
-1.3085420385000377
1.931328791934189
-3.4652705307050655
0.8787478170041109
-0.9730900947654131
2.9907356546570534
2.020316879799773
1.770052604085382
-1.3518333979441783
1.141071017636299
0.5497992328760636
-1.263290742096614
-2.553273096088753
-2.2553227964944336
-2.2239301255992174
-0.8013406257368164
-0.23919568767600244
-1.9373456216061529
-2.3392404464629353
-0.201917419867947
0.04351622632373135
-1.5020292586465096
0.6743884333384864
1.53012625033634
1.6033652428732088
-1.5350873527785518
-2.5875224078443413
-0.5057583184192145
-0.6563424049261096
-0.9477918473263679
1.328096514572399
-0.41055542115911114
0.6378216512479244
1.6763736640953824
-0.30944805842119344
1.9856582749589637
2.54605392652913
-0.5159122657727122
-0.3390381834803452
0.1833687594482069
-1.1604776304624937
-0.6191645065230726
-0.0036495299942997435
-1.7124396707432312
-2.4864243930119385
-0.6083692751742182
-0.4067825245910246
-1.6216768577788243
-1.4138135504041556
-0.5027298525755837
-1.204096525383566
0.7962422874515008
-0.23435494235057985
1.0016593600200294
3.111143435998922
-2.0595671428443567
-3.5768451653770823
-1.4857009725780834
0.8529916091143023
-1.5438642935525013
0.6417081912998421
-0.6202362838598647
1.0999211063606524
-0.46687278318944636
-0.6951983360176528
3.869839993294866
2.744313646735743
1.52964255492617
-1.2132149803935273
-1.6763773500390395
-0.3756478726504925
-0.1585887776807469
-0.874768905527069
-0.794781328706031
-1.2021152412938294
0.13506189168859895
-0.4772454775572031
-2.626529782890681
-2.2505660838067403
-0.4510800460318706
0.32810072883630187
0.15920332214768051
-0.2984972337379757
-1.365825321717317
3.664066082179216
-0.8921418297090747
-2.6822962834113984
-2.5607790250627462
-0.44379141199320593
-1.655985485052126
0.7540440796575909
-0.5738131878989169
0.3265309500791269
-0.3665556697032275
-1.474374885950498
0.811868049747067
2.155197324145584
-0.8412879402910729
-0.20715185775997497
1.167690109845886
-0.7836695783465671
-0.647138732633549
-0.8527215087113711
0.4643859729038835
-0.3757332736496266
-0.7042184415239856
0.04105857362108739
-2.8964539078525737
-1.676036156341725
-1.2582880316207967
-2.084114548957103
2.4095296512845437
1.4191431344572454
-0.5677105495986543
0.5651077295535248
0.6881518866513202
-0.5225154390386832
-1.300712007437194
0.7115638626967566
-0.016159128995212525
0.1749797130893185
-1.5220741587550939
0.8502886339004917
0.01394884867758517
-0.1284378181092674
1.2258363847884262
3.043898240649688
0.3578043440542941
-0.8805193624400197
0.4958203807314586
0.6479425338663642
0.34588575538856986
0.8510512756196876
-0.6435233929197576
-1.1509668363206769
2.51647705499568
1.021784369321228
-3.9132103863516425
-3.6045253522883
-0.13007826752660712
-1.0303845733173018
3.278700994793605
3.136730458519687
-0.5578837465790073
0.3192698119435805
0.7199805669410206
-2.3445774968330992
0.005284809281487582
-0.18442959238687315
0.5340372429807878
-0.7991118880890076
-1.6647066424079144
1.1899864506682842
2.931636415038232
-1.7179940438605363
0.03696978776081084
1.9619207489802943
-1.7407181997508314
0.03785418312163528
0.6213569605908134
0.573677616298489
1.234619805263614
1.064667247941632
-2.0429988408968334
-0.1595919254605312
1.650914168406925
-0.11945508777253508
-2.927891064169083
0.29434811270020156
-0.10080777986544341
-2.5227025212798817
3.088759072326782
-0.1890447459511269
1.5407829527745103
1.0821482729597527
2.672807094543381
-3.40370777093943
-0.133877954658529
0.008945891745345524
-0.1343747489356973
0.7266535755082403
-1.0212532140786061
-1.1747071948436325
2.4849698732655763
-2.603850473849855
-0.26714533998776546
1.257733720901944
0.700003627839802
0.6065824642514431
3.627971144081112
0.49910354736290935
-1.0339264913985513
-1.7051112433521083
-4.7279335114606225
-1.0755943887094512
4.346888392541519
0.592825727494197
-2.694734196687287
-0.39942823407204947
0.5533530799135228
-3.278068583642769
4.0647827162226555
-0.581956080476548
-1.1581397049751743
1.8726713731331954
0.7947802495054449
-1.8905008514798163
-0.5788395171040672
-0.17104665379402817
-0.864873644360618
1.5497784173367475
-1.9066631841968291
-0.4968937460635726
1.3783416678301963
-0.38355472525144385
1.2365440090471689
2.6680702445962816
0.8920375666053889
0.5102818814397931
-0.6993960473994031
-0.8516310111862757
-0.8439846521043879
-1.1169044751460295
-1.330958279058106
-2.4464986221821277
5.318951864323211
1.387546510161663
-0.9048535540458493
0.7840439522091929
-0.04745122466561944
-1.5515206828089585
2.152366131380874
0.061239412379084576
0.8394684874350716
2.7041946180844127
3.3869886851185034
-1.3934051040204787
4.238038035092287
-0.8879359921005805
-1.7658926089661124
0.5055398636844067
-0.8803703144880668
0.606924981380536
3.0259023637925204
-3.1320082400491556
-0.8635454217401849
1.6838583560158435
-0.5837809460304982
1.5905791704553645
1.8424633178852539
-0.3633634517046856
-0.4370800588583546
-0.07977329170831976
-0.42095428552636727
-3.05175829492603
4.513030699927371
-0.8350357677385527
0.2586886166911271
0.7965835765048165
-2.073328329137324
-0.28297249108025735
1.5105870227465348
-2.4637495317121516
-0.17801190829469737
1.102243491491595
1.1944529086467712
-1.6231086817748626
0.047602093271483965
1.283066274085542
-1.337025831064773
-0.8879562260954634
-0.6704261896759742
1.7318230234527465
0.7963798106198032
-0.3755854273104225
0.21617538663366087
0.7386723534500613
0.2653202073036977
3.6773335790635824
1.7470440601346156
0.014140581867130185
0.9132164753370866
0.50864543189394
-0.5922674460151534
0.9988311051743779
4.576509350422151
-1.1650626271500009
-0.9570911325336295
1.8352021010910857
-0.3462227374628101
-0.6493348615237015
1.879890667098138
-1.0280242429849145
-1.0083014253111988
-0.3586677079882556
0.2849053362327036
-1.3681409851897284
2.9631523552890404
-1.941271217369642
-0.7839039083240902
-0.8018583117997534
-0.1805155877805772
-0.7779622273127154
1.8419386871453989
-1.1060807008637947
-1.2644368485058017
0.9621393105692674
-1.7610192146584092
0.2423797391837789
-0.36642623863960305
-1.3026483307879504
-1.588678297974484
-0.3861502665577616
-1.0050065914703399
-1.9245698321720461
2.8048612978982312
-1.3971277692874382
1.1655032405748786
1.9607449069787668
0.2673107001794513
0.3716111428097784
0.5004652381392978
-0.12953495082403133
1.900431994502932
0.007004145173692223
0.042450535335595535
-1.274566734855451
0.6206804235682175
-2.2494155671676177
1.9677977725534328
-0.5959192053438992
0.31902611143877374
1.280123153452139
0.3681433483928605
